svm_type c_svc
kernel_type rbf
gamma 0.125
nr_class 4
total_sv 943
rho -0.649139 -0.600114 -0.330262 -1.00757 -0.786988 0.477827
label 1 2 4 3
probA -5.6668 -5.99866 -5.24812 -5.37198 -5.83123 -5.24559
probB 0.0719449 -0.997164 -0.555298 -0.280111 0.102993 -0.0641281
nr_sv 250 435 126 132
SV
2.25292308563666 0 0.8946824953153858 1:-0.497598 2:-0.10455 3:0.444554 4:-0.346552 5:0.0973141 6:-0.255343 7:0.247382 8:-0.0477217 9:-0.151049 10:0.0889612 11:0.0403305 12:-0.22854 13:0.351968 14:-0.404693 15:0.045938 16:0.403992 17:-0.484088 18:0.334707 19:-0.121826 20:0.143515 21:0.142195 22:-0.161229 23:-0.168394 24:0.466414 25:-0.214482 26:-0.181856 27:-0.371041 28:0.623098 29:-0.434329 30:0.071737 31:0.691504 32:-0.528823 33:0.164801 34:-0.0356603 35:-0.0556179 36:-0.275375 37:0.517569 38:-0.389941 39:0.247775 40:-0.202237 41:0.00201308 42:-0.169178 43:0.316045 44:-0.252563 45:0.0836537 46:0.191273 47:-0.0546488 48:-0.130141 49:-0.0393289 50:0.199724 51:-0.331747 52:-0.390771 53:0.63294 54:-0.420554 55:0.214754 56:-0.285869 57:0.351075 58:-0.0703688 59:0.0236856 60:0.0421349 61:-0.0819369 62:0.193987 63:-0.0856689 64:-0.186853 65:0.0581631 66:-0.122706 67:0.215549 68:-0.0910087 69:0.0882316 70:-0.121966 71:0.0114775 72:-0.0783375 73:-0.0396567 74:0.0816663 75:-0.0330447 76:-0.874469 77:-0.861513 78:-0.921859 79:-0.542397 80:0.647953 
0.4880294235126286 0 0.1465626861860243 1:-0.50632 2:-0.0759787 3:0.418293 4:-0.327999 5:0.00875768 6:-0.13099 7:0.203356 8:-0.00259944 9:-0.222823 10:0.121919 11:-0.0270834 12:-0.0476466 13:0.0831051 14:-0.276689 15:0.0675789 16:0.41222 17:-0.477616 18:0.250476 19:-0.110361 20:0.151333 21:0.255824 22:-0.221063 23:-0.303113 24:0.657792 25:-0.322184 26:-0.152923 27:-0.38546 28:0.581792 29:-0.412621 30:0.122207 31:0.580183 32:-0.431958 33:0.197183 34:-0.122296 35:-0.0548381 36:-0.102201 37:0.311561 38:-0.212732 39:0.265957 40:-0.341794 41:-0.00569504 42:0.00285768 43:-0.0137118 44:-0.0487377 45:0.187159 46:0.0777831 47:-0.0726692 48:-0.145908 49:0.0253905 50:0.132481 51:-0.316873 52:-0.401468 53:0.637701 54:-0.436358 55:0.2398 56:-0.319254 57:0.384999 58:-0.0673595 59:0.0235247 60:0.0165104 61:-0.0614767 62:0.210231 63:-0.14107 64:-0.152856 65:0.0481281 66:-0.105884 67:0.283215 68:-0.334092 69:0.259346 70:-0.0423011 71:-0.0959232 72:-0.068539 73:0.0311517 74:0.00633838 75:-0.0100617 76:-0.879454 77:-0.855361 78:-0.91929 79:-0.538447 80:0.64787 
5.799760852884365 0 0 1:-0.274013 2:-0.198243 3:0.279756 4:-0.314309 5:0.207281 6:-0.290837 7:0.217579 8:-0.172109 9:0.104696 10:-0.0302456 11:-0.0041424 12:-0.0281797 13:-0.139419 14:0.0511682 15:0.0704283 16:-0.113097 17:-0.0520594 18:0.0363238 19:0.264132 20:-0.264102 21:0.385458 22:-0.248741 23:0.0926126 24:0.0774584 25:-0.0483155 26:-0.0279369 27:-0.540876 28:0.696576 29:-0.453094 30:0.253481 31:-0.0378979 32:0.236354 33:0.0810319 34:-0.120239 35:0.0235168 36:-0.098161 37:-0.131731 38:0.190965 39:0.212277 40:-0.235876 41:0.269236 42:-0.175326 43:0.0291437 44:-0.236926 45:0.0353376 46:0.165293 47:0.0764829 48:-0.0916987 49:0.0450381 50:-0.110442 51:-0.0242239 52:-0.57828 53:0.566181 54:-0.372464 55:0.247906 56:-0.105677 57:0.140424 58:-0.113332 59:0.0949522 60:-0.0326475 61:0.202161 62:-0.174816 63:0.0269248 64:-0.13731 65:-0.0196579 66:0.118652 67:-0.0886876 68:0.198322 69:-0.101048 70:-0.191899 71:0.181093 72:-0.185971 73:-0.0535043 74:0.0131727 75:0.0831464 76:-0.896365 77:-0.910483 78:-0.983569 79:-0.447808 80:0.63135 
1.298604758067985 0 0 1:0.228852 2:-0.721542 3:0.466616 4:-0.306839 5:0.0970555 6:-0.23355 7:0.1868 8:-0.149754 9:0.0851985 10:-0.16292 11:-0.0130783 12:0.056918 13:-0.203623 14:0.0641978 15:0.000392949 16:0.271646 17:-0.283079 18:0.0385938 19:0.195372 20:-0.00174664 21:0.10125 22:-0.00808974 23:0.0247089 24:-0.0567857 25:0.441598 26:0.17166 27:-0.712795 28:0.552367 29:-0.231625 30:0.115848 31:0.21304 32:0.120734 33:-0.088636 34:-0.206609 35:0.138139 36:-0.156155 37:0.195598 38:-0.261044 39:0.189865 40:-0.0197439 41:0.180332 42:-0.159798 43:0.184675 44:-0.212712 45:-0.164675 46:0.457652 47:0.214793 48:-0.132262 49:-0.321511 50:0.14953 51:0.0801018 52:-0.588553 53:0.600943 54:-0.470339 55:0.104815 56:0.0135345 57:0.198985 58:-0.0130226 59:-0.14232 60:-0.00604021 61:0.161979 62:-0.0302772 63:0.128897 64:-0.375511 65:0.207928 66:-0.14117 67:0.0953933 68:0.142843 69:-0.142144 70:-0.0401726 71:0.0685274 72:-0.220677 73:0.005343 74:-0.224476 75:0.433508 76:-0.949575 77:-0.954107 78:-0.990723 79:-0.468259 80:0.572083 
0 0.2288129712404692 2.414819907684871 1:-0.173687 2:-0.369474 3:0.253466 4:-0.0894533 5:0.0739928 6:-0.201984 7:0.040509 8:0.0301087 9:0.0279212 10:-0.100309 11:-0.100264 12:0.329795 13:-0.485144 14:0.220307 15:-0.0624925 16:0.0474728 17:-0.176395 18:0.163087 19:0.0870079 20:0.149222 21:-0.115219 22:0.0527791 23:0.0559068 24:-0.0246926 25:0.107405 26:-0.231641 27:-0.112949 28:0.0323497 29:0.205654 30:-0.152612 31:0.137406 32:0.120739 33:-0.180064 34:-0.0561742 35:-0.168952 36:0.313932 37:-0.104704 38:0.0333149 39:0.04868 40:0.0583754 41:0.000422645 42:0.134737 43:-0.134449 44:0.0381162 45:-0.299554 46:0.304341 47:-0.22358 48:0.185456 49:-0.102344 50:0.0779826 51:-0.401239 52:-0.149568 53:0.390065 54:-0.429081 55:0.250594 56:0.049882 57:-0.0721699 58:0.141563 59:-0.11403 60:0.0350436 61:0.187213 62:-0.196744 63:0.0807946 64:-0.267189 65:0.292606 66:-0.157387 67:0.0534441 68:0.116366 69:-0.10943 70:-0.148538 71:0.323367 72:-0.297188 73:-0.144111 74:0.200545 75:0.000964412 76:-0.805906 77:-0.762951 78:-0.925381 79:-0.532246 80:0.507924 
9.587940539805789 2.186317281421913 0 1:-0.218122 2:-0.275684 3:0.19543 4:-0.122466 5:0.0665687 6:-0.150246 7:0.062607 8:-0.00122565 9:0.0307503 10:-0.112104 11:-0.0862335 12:0.311372 13:-0.470827 14:0.258398 15:-0.0814466 16:-0.0128036 17:-0.14 18:0.188882 19:0.0523955 20:0.199096 21:-0.210579 22:0.173204 23:-0.102983 24:0.0796249 25:0.100839 26:-0.255333 27:-0.0953055 28:0.0317341 29:0.203174 30:-0.151699 31:0.116461 32:0.157609 33:-0.202711 34:-0.0012044 35:-0.193602 36:0.299761 37:-0.101285 38:-0.0193028 39:0.177039 40:-0.0454887 41:0.110414 42:-0.00837415 43:-0.0402696 44:-0.0608909 45:-0.209024 46:0.288588 47:-0.212952 48:0.186332 49:-0.155004 50:0.133929 51:-0.427535 52:-0.102518 53:0.332356 54:-0.381442 55:0.261729 56:-0.0343116 57:0.0247198 58:0.132649 59:-0.173655 60:0.0745552 61:0.216711 62:-0.262593 63:0.136907 64:-0.213333 65:0.156094 66:-0.0462726 67:-0.0285717 68:0.193783 69:-0.238342 70:0.10107 71:0.0625696 72:-0.108297 73:-0.226987 74:0.229345 75:-0.0271706 76:-0.820727 77:-0.802991 78:-0.926303 79:-0.554472 80:0.498185 
1.740655478867652 0 0 1:-0.315302 2:-0.266721 3:0.52966 4:-0.559195 5:0.133141 6:0.0398355 7:0.0444431 8:-0.136287 9:0.138797 10:-0.214902 11:0.172906 12:-0.0582538 13:0.0753305 14:-0.257126 15:0.0326527 16:0.392257 17:-0.366281 18:0.0871288 19:0.282392 20:-0.260196 21:0.0141212 22:0.255072 23:-0.0733881 24:-0.0375794 25:0.244809 26:-0.428554 27:-0.131376 28:0.482361 29:-0.216776 30:0.287462 31:-0.308628 32:0.410978 33:-0.0732348 34:-0.00483541 35:-0.322841 36:0.14629 37:0.0320952 38:0.0891613 39:-0.070011 40:-0.0697868 41:0.246288 42:-0.25171 43:0.257141 44:-0.183564 45:-0.211736 46:0.498548 47:-0.498616 48:0.391873 49:-0.433306 50:0.45317 51:-0.358876 52:-0.188483 53:0.427421 54:-0.480118 55:0.273941 56:-0.0263686 57:-0.0210879 58:0.192069 59:-0.169992 60:0.0774494 61:0.0362034 62:0.0534341 63:-0.0949786 64:-0.0802142 65:-0.0115585 66:0.0209566 67:-0.0380438 68:0.233117 69:-0.122213 70:0.033942 71:-0.132594 72:-0.0505593 73:0.102984 74:-0.163417 75:0.175272 76:-0.742285 77:-0.718531 78:-0.937726 79:0.228519 80:0.203165 
2.817967950451272 0 0 1:0.143027 2:-0.775776 3:0.487105 4:-0.259628 5:0.181526 6:-0.137639 7:-0.0156112 8:-0.060275 9:0.0349793 10:-0.0885845 11:0.0756405 12:0.156628 13:-0.0574208 14:-0.101189 15:0.0817266 16:-0.097894 17:-0.174252 18:0.0189652 19:0.282204 20:-0.014733 21:0.106647 22:-0.289597 23:0.000591283 24:0.203192 25:0.356378 26:0.0492947 27:-0.671817 28:0.780051 29:-0.29434 30:0.317193 31:-0.135309 32:0.0266483 33:0.00639355 34:-0.0329494 35:-0.0910732 36:0.0744333 37:0.0465029 38:-0.395568 39:0.445484 40:0.0387412 41:-0.188422 42:0.182887 43:-0.193589 44:-0.00942046 45:0.0228368 46:0.299818 47:-0.232659 48:-0.00272001 49:-0.225664 50:0.454506 51:0.0912004 52:-0.679443 53:0.58257 54:-0.337417 55:0.136787 56:-0.171218 57:0.300607 58:-0.0881054 59:-0.0226774 60:-0.0453564 61:0.249911 62:-0.11502 63:0.0831804 64:-0.0444877 65:-0.0808814 66:0.0417992 67:-0.11389 68:0.274593 69:-0.196899 70:-0.0551792 71:0.167712 72:-0.343824 73:0.0936225 74:-0.153751 75:0.322325 76:-0.893915 77:-0.892612 78:-0.96271 79:0.330224 80:0.0431798 
3.188947264862478 0 0 1:-0.355904 2:-0.258289 3:0.572153 4:-0.52836 5:0.107293 6:-0.0196033 7:0.034541 8:-0.063274 9:0.1952 10:-0.279819 11:0.167378 12:-0.0385452 13:-0.0739741 14:-0.0767431 15:0.0768411 16:0.173093 17:-0.345958 18:0.224024 19:0.164048 20:-0.136437 21:0.173909 22:-0.143736 23:0.186878 24:-0.232884 25:0.374219 26:-0.285731 27:-0.356323 28:0.754265 29:-0.328043 30:0.271895 31:-0.183996 32:0.122643 33:0.120878 34:-0.153109 35:-0.13476 36:-0.128541 37:0.281456 38:-0.238983 39:0.262819 40:-0.162818 41:-0.0794823 42:0.176804 43:-0.191882 44:0.171518 45:-0.0583833 46:0.0694039 47:-0.15184 48:0.185777 49:-0.0488329 50:-0.0342652 51:-0.30684 52:-0.328382 53:0.531611 54:-0.448619 55:0.25841 56:-0.133989 57:0.171069 58:-0.0233102 59:-0.0313891 60:0.115347 61:-0.041083 62:0.0135942 63:-0.0594762 64:-0.148767 65:0.325879 66:-0.340385 67:0.100563 68:0.299362 69:-0.0421185 70:-0.322368 71:0.180327 72:-0.0900028 73:-0.119939 74:0.0935551 75:0.0225395 76:-0.796621 77:-0.823892 78:-0.927657 79:0.354314 80:-0.0107097 
0 0 0.5384229921247794 1:-0.251673 2:-0.370584 3:0.447649 4:-0.302431 5:0.198233 6:-0.320971 7:0.243335 8:-0.0855345 9:0.0229773 10:-0.0594774 11:-0.0981531 12:0.0310446 13:0.0133823 14:0.160565 15:-0.156629 16:-0.143843 17:0.170332 18:-0.187859 19:0.320144 20:-0.0947149 21:0.0918605 22:-0.0979989 23:0.145188 24:0.0605596 25:-0.0773758 26:-0.332683 27:-0.212892 28:0.565944 29:-0.323217 30:0.281314 31:-0.146139 32:0.288014 33:0.0128079 34:-0.207161 35:0.0646659 36:-0.21269 37:0.0977381 38:0.198693 39:-0.308421 40:0.233376 41:-0.112757 42:-0.0032082 43:0.0254755 44:-0.34189 45:0.235774 46:0.21863 47:-0.0367018 48:-0.264094 49:0.247036 50:-0.0426642 51:-0.274412 52:-0.322523 53:0.559184 54:-0.549594 55:0.305889 56:-0.0586348 57:0.253107 58:-0.162713 59:-0.0610596 60:0.133203 61:0.132436 62:-0.125378 63:-0.100982 64:0.122345 65:-0.125325 66:-0.0480667 67:0.117014 68:-0.00482664 69:0.100082 70:-0.37493 71:0.307178 72:-0.283103 73:-0.0511159 74:0.188037 75:-0.113517 76:-0.956917 77:-0.859342 78:-0.98449 79:0.045712 80:0.334672 
0.5356874483044725 0 0.4485572697255945 1:-0.390597 2:-0.210045 3:0.516691 4:-0.374711 5:-0.0945379 6:0.209302 7:0.00815445 8:-0.201187 9:-0.113971 10:0.120107 11:0.257568 12:-0.436333 13:0.430868 14:-0.309128 15:-0.0374217 16:0.087189 17:0.0231786 18:-0.140554 19:0.30354 20:-0.0344369 21:-0.0579139 22:-0.0314644 23:0.240985 24:-0.163901 25:0.101348 26:-0.58627 27:0.0479652 28:0.699746 29:-0.530354 30:0.193741 31:0.100425 32:0.165448 33:-0.0927977 34:-0.127297 35:0.0323973 36:-0.210959 37:0.295672 38:-0.310562 39:0.265709 40:-0.0227062 41:-0.0173439 42:-0.113863 43:0.269138 44:-0.415398 45:0.0740905 46:0.283922 47:-0.105322 48:-0.258462 49:0.400865 50:-0.317539 51:-0.316514 52:-0.272074 53:0.517463 54:-0.538037 55:0.260705 56:-0.0104794 57:0.237645 58:-0.0387268 59:-0.105198 60:0.0420486 61:0.288141 62:-0.438966 63:0.171788 64:0.076558 65:-0.179635 66:0.0577207 67:-0.0361835 68:0.188319 69:-0.163934 70:0.119002 71:-0.180385 72:0.0153689 73:-0.282942 74:0.380914 75:-0.189345 76:-0.910814 77:-0.812222 78:-0.968799 79:0.0209432 80:0.265573 
0 0 0.4244093616627599 1:-0.425832 2:-0.235808 3:0.54381 4:-0.408654 5:0.168617 6:-0.178664 7:-0.00165334 8:0.00834294 9:0.0545668 10:0.01041 11:-0.108447 12:0.00189086 13:0.109972 14:-0.0264716 15:-0.424384 16:0.591721 17:-0.314787 18:0.204648 19:0.0796495 20:-0.0770692 21:0.205207 22:-0.313594 23:0.0631043 24:0.402066 25:-0.204683 26:-0.661024 27:0.180966 28:0.462426 29:-0.355652 30:0.139206 31:0.0206352 32:0.242672 33:-0.152557 34:0.00965339 35:-0.0548994 36:-0.0702849 37:-0.0453585 38:0.307314 39:-0.384361 40:0.340589 41:-0.192124 42:0.240917 43:-0.19799 44:-0.0234951 45:-0.127916 46:0.121035 47:0.29456 48:-0.236269 49:-0.0143634 50:0.152785 51:-0.312464 52:-0.330341 53:0.550966 54:-0.474838 55:0.250903 56:-0.0333825 57:0.0238366 58:0.129298 59:-0.187238 60:0.139987 61:0.0667237 62:-0.108273 63:0.0920619 64:0.00992768 65:-0.132197 66:-0.0522675 67:0.0749356 68:0.14502 69:-0.0659286 70:-0.0846267 71:-0.200145 72:0.266249 73:-0.244273 74:0.0577613 75:0.0382195 76:-0.871838 77:-0.853744 78:-0.964472 79:-0.0423902 80:0.263516 
0 0 0.08882681204996611 1:-0.457177 2:-0.19548 3:0.533607 4:-0.393571 5:0.115958 6:-0.17858 7:0.0546001 8:0.00567498 9:0.0789605 10:-0.114831 11:0.0701026 12:-0.13171 13:0.269639 14:-0.303234 15:-0.103446 16:0.335495 17:-0.250435 18:0.192989 19:0.0551504 20:-0.0998027 21:0.359911 22:-0.43988 23:0.118474 24:0.321479 25:-0.12814 26:-0.691534 27:0.224817 28:0.432083 29:-0.349233 30:0.146085 31:-0.018973 32:0.321381 33:-0.202329 34:0.0843366 35:-0.193444 36:0.0564019 37:-0.0758225 38:0.353817 39:-0.496334 40:0.329533 41:-0.0910972 42:0.158006 43:-0.145791 44:-0.091904 45:-0.0488968 46:-0.0262529 47:0.534624 48:-0.390179 49:0.0507491 50:0.151121 51:-0.315117 52:-0.354134 53:0.597192 54:-0.516133 55:0.254551 56:-0.00806286 57:0.0407761 58:0.0681957 59:-0.149139 60:0.0848155 61:0.135986 62:-0.0659646 63:0.0189154 64:0.00779612 65:-0.241493 66:0.172054 67:-0.0328215 68:0.0595974 69:0.0318966 70:-0.100473 71:-0.12111 72:0.14412 73:-0.176995 74:0.0544889 75:0.0179616 76:-0.854916 77:-0.845889 78:-0.962214 79:-0.0268591 80:0.251428 
0 0 0.3045541638909453 1:-0.517212 2:-0.0638706 3:0.49992 4:-0.493674 5:0.134534 6:-0.257928 7:0.194128 8:0.165733 9:-0.213292 10:0.0147543 11:-0.0389655 12:-0.0335362 13:0.225763 14:-0.369602 15:0.162997 16:-0.0646188 17:0.0494085 18:0.0711709 19:-0.0164102 20:-0.0403468 21:0.200948 22:-0.101632 23:-0.00347279 24:0.0910044 25:0.0806482 26:-0.674527 27:0.27095 28:0.361208 29:-0.338093 30:0.177348 31:0.058357 32:0.0735832 33:-0.0423338 34:0.101639 35:-0.292676 36:0.0638008 37:0.157272 38:-0.279941 39:0.491171 40:-0.449327 41:0.37199 42:-0.286049 43:0.17781 44:-0.345052 45:0.243565 46:0.0227563 47:-0.254337 48:0.279737 49:-0.187845 50:0.0925314 51:-0.249978 52:-0.303032 53:0.414105 54:-0.278033 55:0.0511254 56:0.0650123 57:0.0848655 58:-0.0655144 59:-0.0602891 60:0.194675 61:-0.126336 62:0.143392 63:-0.255485 64:0.316768 65:-0.437048 66:0.28562 67:-0.15958 68:0.269465 69:-0.205274 70:0.0787192 71:0.000839182 72:-0.425859 73:0.346253 74:-0.0368114 75:-0.129069 76:-0.88117 77:-0.905427 78:-0.97262 79:-0.0248266 80:0.246591 
1.497942035113616 0 0 1:-0.41591 2:-0.130692 3:0.464706 4:-0.468098 5:0.0610083 6:0.0246387 7:-0.0348476 8:0.0656272 9:-0.0385868 10:-0.153413 11:0.35712 12:-0.223907 13:-0.0561576 14:-0.041892 15:0.162969 16:-0.19893 17:0.0624904 18:-0.0320284 19:-0.0158515 20:0.222065 21:0.0191637 22:-0.239645 23:0.293249 24:-0.156414 25:0.225856 26:-0.703733 27:0.244201 28:0.567073 29:-0.703153 30:0.644811 31:-0.182394 32:0.244383 33:-0.0570549 34:-0.161108 35:0.0288565 36:-0.136802 37:0.251127 38:-0.277222 39:0.23599 40:-0.289841 41:0.488045 42:-0.356661 43:-0.0707432 44:0.0149183 45:-0.140646 46:0.190906 47:-0.00558887 48:-0.0412004 49:0.0283561 50:0.081088 51:-0.349612 52:-0.198402 53:0.429414 54:-0.438407 55:0.216353 56:0.0142902 57:0.123226 58:0.0703004 59:-0.211676 60:0.109143 61:0.137496 62:-0.168128 63:0.181269 64:-0.159255 65:-0.0741967 66:0.127738 67:-0.0574848 68:0.0190236 69:-0.14497 70:0.164342 71:-0.197389 72:0.0492277 73:-0.155174 74:0.221473 75:-0.153675 76:-0.904034 77:-0.877563 78:-0.966528 79:0.00775568 80:0.228432 
0.332410571935386 0 0 1:-0.437939 2:-0.119445 3:0.491252 4:-0.514514 5:0.100142 6:-0.0259018 7:0.0345928 8:0.0388325 9:-0.105084 10:-0.0628288 11:0.323624 12:-0.290924 13:0.0437171 14:-0.0577273 15:0.0969236 16:-0.102149 17:0.0173091 18:-0.0444956 19:0.0475272 20:0.173515 21:0.00904753 22:-0.153679 23:0.177918 24:-0.07077 25:0.194211 26:-0.708534 27:0.25997 28:0.51181 29:-0.615264 30:0.516139 31:-0.0754722 32:0.137381 33:0.0741943 34:-0.342982 35:0.159015 36:-0.106588 37:0.145084 38:-0.252226 39:0.366971 40:-0.35188 41:0.370925 42:-0.186067 43:-0.126804 44:-0.0184729 45:-0.0714419 46:0.0948391 47:0.0634721 48:-0.0275156 49:-0.00790531 50:0.0974878 51:-0.346437 52:-0.191073 53:0.411943 54:-0.442117 55:0.278823 56:-0.059298 57:0.191242 58:-0.0218799 59:-0.103684 60:0.0596087 61:0.122872 62:-0.186313 63:0.23247 64:-0.140368 65:-0.129572 66:0.0553036 67:0.126011 68:-0.151119 69:-0.111295 70:0.178033 71:-0.210855 72:0.0836604 73:-0.186869 74:0.208668 75:-0.113875 76:-0.886072 77:-0.847576 78:-0.965878 79:-0.00258361 80:0.237225 
0.2835000295550008 0 0 1:-0.526556 2:-0.0154832 3:0.445219 4:-0.502754 5:0.0980004 6:-0.0155256 7:0.0364674 8:0.000826225 9:-0.129661 10:0.0209067 11:0.34211 12:-0.515155 13:0.219595 14:0.0330619 15:-0.0121342 16:-0.0619097 17:-0.0243214 18:0.0592445 19:0.0782281 20:-0.0340345 21:0.14704 22:-0.105548 23:0.119759 24:-0.123495 25:0.25742 26:-0.808599 27:0.399802 28:0.442181 29:-0.687719 30:0.608905 31:-0.028975 32:0.0350647 33:0.0824039 34:-0.347549 35:0.286089 36:-0.247441 37:0.136758 38:-0.22978 39:0.517678 40:-0.569734 41:0.488792 42:-0.0692874 43:-0.412876 44:0.145243 45:0.118298 46:-0.162807 47:0.00565076 48:0.258326 49:-0.280195 50:0.254521 51:-0.40816 52:-0.139846 53:0.381841 54:-0.409571 55:0.258234 56:-0.0880183 57:0.222882 58:-0.0175518 59:-0.0967182 60:-0.0148984 61:0.231922 62:-0.194643 63:0.156231 64:-0.0374077 65:-0.312841 66:0.247555 67:-0.0381623 68:0.0137881 69:-0.155247 70:0.110398 71:-0.0952001 72:-0.0721528 73:0.0594687 74:-0.0829715 75:0.0931416 76:-0.847781 77:-0.836341 78:-0.956754 79:-0.0198007 80:0.26618 
0 0 0.1539537239910809 1:-0.484442 2:-0.0366414 3:0.383446 4:-0.388704 5:0.00642577 6:-0.112149 7:0.220196 8:0.0582099 9:-0.200736 10:-0.111196 11:0.298615 12:-0.188052 13:-0.0360335 14:0.0556943 15:-0.0908522 16:0.243656 17:-0.333175 18:0.300412 19:-0.102557 20:0.186345 21:-0.0942475 22:0.0892452 23:-0.175825 24:0.277907 25:-0.0438516 26:-0.8119 27:0.458218 28:0.312261 29:-0.491398 30:0.223736 31:0.302356 32:-0.103613 33:-0.0846707 34:0.0125472 35:0.0976394 36:-0.475369 37:0.313497 38:-0.00139427 39:-0.0273718 40:-0.119014 41:0.295033 42:-0.20564 43:0.088669 44:-0.301798 45:0.120107 46:0.304082 47:-0.113905 48:-0.242459 49:0.294836 50:-0.172551 51:-0.48427 52:-0.0298242 53:0.334035 54:-0.467477 55:0.32604 56:-0.124062 57:0.301074 58:-0.0583234 59:-0.145829 60:0.0602772 61:0.219033 62:-0.225528 63:0.170989 64:-0.101549 65:-0.128062 66:0.167266 67:-0.222366 68:0.426202 69:-0.432995 70:0.165309 71:0.0696006 72:-0.272804 73:0.0405045 74:0.0844852 75:-0.0523595 76:-0.888776 77:-0.847475 78:-0.957913 79:-0.0327982 80:0.320731 
0 0 0.5966646044112983 1:-0.504642 2:-0.0164063 3:0.387503 4:-0.415685 5:0.055245 6:-0.175238 7:0.295614 8:-0.0437029 9:-0.150092 10:-0.0447826 11:0.181007 12:-0.167841 13:0.0419601 14:0.00867671 15:-0.0945427 16:0.183636 17:-0.291354 18:0.373272 19:-0.267584 20:0.276236 21:-0.0998757 22:0.146513 23:-0.241124 24:0.249536 25:0.0211853 26:-0.823561 27:0.498623 28:0.230436 29:-0.427196 30:0.186177 31:0.331373 32:-0.153669 33:-0.0418889 34:-0.0197019 35:0.140266 36:-0.522858 37:0.372515 38:-0.148975 39:0.201136 40:-0.271192 41:0.395522 42:-0.412013 43:0.349232 44:-0.442974 45:0.121761 46:0.314182 47:-0.0907463 48:-0.226464 49:0.240984 50:-0.133257 51:-0.50821 52:-0.0080308 53:0.335642 54:-0.473086 55:0.284661 56:-0.0514645 57:0.271414 58:-0.128034 59:-0.0455333 60:-0.0105787 61:0.255712 62:-0.228503 63:0.141661 64:-0.0845664 65:-0.0930445 66:0.122122 67:-0.189221 68:0.325162 69:-0.213169 70:0.0737187 71:-0.118488 72:0.063674 73:-0.184972 74:0.0974104 75:0.00604605 76:-0.8851 77:-0.806296 78:-0.953808 79:-0.0146876 80:0.321086 
0 0 0.04639942473221213 1:-0.0337362 2:-0.647062 3:0.642589 4:-0.388756 5:0.0875458 6:-0.0744104 7:0.0420317 8:-0.174641 9:0.197201 10:-0.140812 11:0.111543 12:0.0405032 13:-0.220199 14:0.0266971 15:0.12002 16:0.0192824 17:-0.182957 18:0.118913 19:-0.0351164 20:0.0727745 21:0.283944 22:-0.128094 23:-0.353823 24:0.739094 25:-0.527534 26:0.0111221 27:-0.703538 28:0.724215 29:-0.197886 30:0.223733 31:-0.243561 32:0.252817 33:0.163488 34:-0.048679 35:-0.118174 36:-0.0149179 37:-0.121846 38:-0.101685 39:0.367126 40:-0.0379707 41:0.0131772 42:-0.114549 43:0.0250669 44:0.0682493 45:-0.0680224 46:0.0056125 47:0.0356181 48:0.006425 49:-0.0548517 50:0.0501267 51:-0.1794 52:-0.504899 53:0.659878 54:-0.394262 55:-0.0192213 56:-0.0400178 57:0.325672 58:-0.0620733 59:0.0384041 60:-0.140679 61:0.135023 62:0.022074 63:0.0205831 64:-0.165617 65:-0.0679369 66:0.0870653 67:0.0251338 68:0.0912657 69:-0.269784 70:0.140706 71:0.0476714 72:-0.279029 73:0.0695599 74:0.0729107 75:-0.00908817 76:-0.95707 77:-0.955239 78:-0.984367 79:0.223134 80:0.557589 
0 0.01723519042602248 0 1:-0.0953188 2:-0.569385 3:0.613824 4:-0.39577 5:0.0923331 6:-0.102916 7:0.175304 8:-0.338603 9:0.252604 10:-0.133081 11:0.0339021 12:0.126264 13:-0.26288 14:0.0454092 15:0.0889796 16:-0.00857604 17:-0.0857733 18:0.0985664 19:-0.0303773 20:0.00338884 21:0.3639 22:-0.212935 23:-0.261469 24:0.603832 25:-0.395181 26:-0.00660345 27:-0.708516 28:0.780105 29:-0.273897 30:0.311926 31:-0.206125 32:0.206519 33:0.0690607 34:0.00918679 35:-0.0333467 36:-0.177411 37:-0.0699619 38:-0.012169 39:0.368237 40:-0.139724 41:0.0951506 42:-0.0476189 43:-0.113959 44:0.0849 45:-0.0846004 46:0.00741985 47:-0.165409 48:0.261729 49:-0.301759 50:0.35342 51:-0.186682 52:-0.500231 53:0.661434 54:-0.407652 55:-0.0130215 56:-0.0187064 57:0.303371 58:-0.0704494 59:0.0880661 60:-0.256519 61:0.284797 62:-0.0366886 63:-0.00986727 64:-0.193247 65:0.0624638 66:0.0683364 67:-0.123645 68:0.230582 69:-0.117903 70:-0.0505135 71:0.0185001 72:-0.153713 73:0.0234017 74:0.0386476 75:0.0142073 76:-0.939264 77:-0.952015 78:-0.975518 79:0.213969 80:0.541435 
0 0 0.4885545354787405 1:-0.462832 2:-0.120968 3:0.619263 4:-0.60357 5:0.12617 6:-0.182064 7:0.182182 8:0.115429 9:-0.106066 10:-0.148274 11:0.0194036 12:0.069533 13:0.0279944 14:-0.167666 15:0.0156138 16:-0.00580985 17:0.0546346 18:-0.0288963 19:0.00367788 20:0.192145 21:-0.0425152 22:-0.165027 23:0.210372 24:0.0949597 25:-0.103563 26:-0.25862 27:-0.2579 28:0.447786 29:-0.198478 30:0.549263 31:-0.599478 32:0.223327 33:0.189177 34:-0.146748 35:0.15221 36:-0.214104 37:-0.0293765 38:0.0151725 39:0.191463 40:-0.000724943 41:-0.241432 42:0.253813 43:-0.376439 44:0.272583 45:0.0565088 46:-0.295447 47:0.372792 48:-0.234153 49:0.369556 50:-0.414716 51:-0.445682 52:-0.0294261 53:0.297765 54:-0.443794 55:0.33156 56:-0.137992 57:0.157776 58:0.17907 59:-0.330688 60:0.0958813 61:0.312903 62:-0.199354 63:-0.123352 64:0.254981 65:-0.299664 66:0.050514 67:0.060144 68:0.07619 69:-0.029795 70:-0.239152 71:0.205593 72:-0.15926 73:-0.0125287 74:0.000816222 75:0.0634823 76:-0.925155 77:-0.929768 78:-0.967304 79:0.198706 80:0.561523 
0 0.4523613090288989 0.6303099598173925 1:-0.472495 2:-0.0957607 3:0.57917 4:-0.579366 5:0.140137 6:-0.23223 7:0.243141 8:0.0475128 9:-0.0401019 10:-0.1898 11:0.017835 12:0.100648 13:0.0200312 14:-0.234897 15:0.14137 16:-0.177983 17:0.172962 18:-0.092519 19:0.035787 20:0.150358 21:0.0308159 22:-0.222159 23:0.190199 24:0.179278 25:-0.179085 26:-0.248215 27:-0.274733 28:0.460433 29:-0.193096 30:0.518846 31:-0.55522 32:0.184084 33:0.188097 34:-0.101156 35:0.0898757 36:-0.187751 37:0.011184 38:-0.0894842 39:0.305698 40:-0.0383448 41:-0.291448 42:0.376547 43:-0.50113 44:0.327146 45:0.0822068 46:-0.370951 47:0.445093 48:-0.264443 49:0.368435 50:-0.395538 51:-0.417523 52:-0.0786867 53:0.34135 54:-0.444617 55:0.277246 56:-0.112095 57:0.211291 58:0.0836568 59:-0.238734 60:0.0374784 61:0.298159 62:-0.12318 63:-0.192856 64:0.255777 65:-0.255763 66:0.032298 67:0.0180265 68:0.193755 69:-0.151357 70:-0.199948 71:0.227328 72:-0.18616 73:0.00166047 74:-0.0166573 75:0.0814162 76:-0.921799 77:-0.928911 78:-0.96674 79:0.198958 80:0.559642 
0 0.1631227425645365 0.5581498306029187 1:-0.459809 2:-0.105819 3:0.614961 4:-0.660412 5:0.192735 6:-0.198918 7:0.235585 8:-0.0324894 9:-0.113721 10:0.026004 11:-0.0269905 12:-0.154736 13:0.256753 14:-0.251903 15:0.0624058 16:-0.0744399 17:0.0718925 18:-0.0346243 19:-0.0832268 20:0.339528 21:0.0707236 22:-0.498592 23:0.379711 24:0.262421 25:-0.29349 26:-0.260288 27:-0.296573 28:0.469914 29:-0.132073 30:0.483388 31:-0.529974 32:0.0977777 33:0.245889 34:-0.075815 35:0.0868885 36:-0.206254 37:0.00300747 38:-0.237116 39:0.356463 40:0.195188 41:-0.321499 42:0.437829 43:-0.715301 44:0.431596 45:0.0621897 46:-0.312521 47:0.35557 48:-0.234135 49:0.13438 50:-0.0521672 51:-0.386407 52:-0.120532 53:0.363295 54:-0.435034 55:0.264918 56:-0.059043 57:0.173447 58:0.0393384 59:-0.162042 60:0.0433977 61:0.118191 62:-0.0402255 63:-0.159156 64:0.226037 65:-0.23262 66:0.0527438 67:-0.0850049 68:0.213055 69:0.055852 70:-0.408144 71:0.281424 72:-0.0827566 73:-0.0608363 74:-0.182908 75:0.296402 76:-0.93159 77:-0.935789 78:-0.968751 79:0.201351 80:0.550276 
0 0 0.02941640276738322 1:-0.250429 2:-0.051853 3:0.187697 4:-0.480699 5:0.209176 6:-0.0975357 7:0.105436 8:-0.323732 9:0.470222 10:-0.464864 11:0.235563 12:0.157706 13:-0.485496 14:0.463755 15:-0.379666 16:0.412167 17:-0.265985 18:0.172589 19:-0.066629 20:0.107849 21:0.11156 22:-0.184219 23:0.132281 24:-0.176336 25:0.388666 26:-0.320827 27:0.0509673 28:0.415868 29:-0.746541 30:0.859526 31:-0.257287 32:-0.325697 33:0.387296 34:-0.132566 35:-0.390214 36:0.578445 37:-0.133746 38:0.0143529 39:0.415977 40:-0.213899 41:-0.03369 42:0.23558 43:-0.211353 44:-0.352441 45:0.458462 46:-0.360244 47:0.0170122 48:0.291911 49:-0.444911 50:0.47509 51:-0.28815 52:-0.252238 53:0.429391 54:-0.399864 55:0.123011 56:-0.0276809 57:0.256911 58:-0.310117 59:0.241752 60:-0.0691256 61:0.256156 62:-0.287502 63:0.0192893 64:0.224226 65:-0.246293 66:0.00356095 67:0.0391003 68:0.264651 69:-0.431572 70:0.273429 71:-0.0502253 72:-0.112199 73:-0.122304 74:0.25059 75:-0.189221 76:-0.977701 77:-0.95121 78:-0.968406 79:0.504695 80:-0.0104192 
0.1065062034959309 0 0 1:-0.358912 2:0.0718621 3:0.0685226 4:-0.35545 5:0.0802127 6:0.0133461 7:0.0459818 8:-0.184228 9:0.217395 10:-0.259305 11:0.286943 12:-0.0214829 13:-0.257405 14:0.255157 15:-0.263652 16:0.326813 17:-0.421672 18:0.298269 19:-0.103051 20:0.198302 21:0.0156617 22:-0.144658 23:0.187511 24:-0.119694 25:0.267261 26:-0.443984 27:0.141175 28:0.285004 29:-0.51113 30:0.679891 31:-0.329931 32:0.24622 33:-0.136507 34:0.0665899 35:-0.197991 36:0.28426 37:-0.311021 38:0.354984 39:0.00233396 40:-0.0819404 41:0.0651826 42:-0.0636228 43:0.238047 44:-0.565989 45:0.339088 46:0.242878 47:-0.661927 48:0.532326 49:-0.387881 50:0.218988 51:-0.445182 52:-0.0963746 53:0.303614 54:-0.168961 55:-0.0859389 56:-0.0260444 57:0.302255 58:-0.294767 59:0.33843 60:-0.196427 61:0.0665506 62:-0.00670815 63:-0.0703896 64:0.163957 65:-0.256134 66:0.134707 67:-0.0997097 68:0.184932 69:0.114406 70:-0.378082 71:0.379464 72:-0.46371 73:0.184728 74:-0.0384824 75:0.0452583 76:-0.940496 77:-0.89032 78:-0.921339 79:0.487932 80:-0.0234315 
0 0 0.8696259670102726 1:-0.334417 2:0.0272635 3:0.133927 4:-0.41346 5:0.111787 6:0.0131252 7:0.0188349 8:-0.150285 9:0.182999 10:-0.231143 11:0.259528 12:-0.025206 13:-0.200907 14:0.15364 15:-0.162751 16:0.222824 17:-0.347493 18:0.241798 19:-0.0643814 20:0.185165 21:0.0067332 22:-0.116915 23:0.14914 24:-0.0841034 25:0.253045 26:-0.449037 27:0.140394 28:0.288395 29:-0.509049 30:0.669022 31:-0.301153 32:0.215847 33:-0.102132 34:0.0364723 35:-0.172424 36:0.260518 37:-0.301542 38:0.328367 39:0.0299795 40:-0.119164 41:0.0794704 42:-0.0630723 43:0.223074 44:-0.542225 45:0.319189 46:0.261044 47:-0.660066 48:0.52531 49:-0.376051 50:0.211373 51:-0.443827 52:-0.0977463 53:0.303278 54:-0.166164 55:-0.093046 56:-0.0105379 57:0.273428 58:-0.271332 59:0.33232 60:-0.208826 61:0.0879028 62:-0.024475 63:-0.0548807 64:0.144124 65:-0.23785 66:0.143818 67:-0.137928 68:0.238588 69:0.0761864 70:-0.343869 71:0.329254 72:-0.405939 73:0.143756 74:-0.0206588 75:0.0410644 76:-0.933037 77:-0.862633 78:-0.910148 79:0.473669 80:-0.0189326 
0 0 0.4070666163328885 1:-0.257683 2:-0.183971 3:0.371463 4:-0.451861 5:0.0249316 6:-0.0331107 7:0.260588 8:-0.276758 9:0.0285606 10:-0.070915 11:0.337862 12:-0.160387 13:-0.0944794 14:-0.0610725 15:0.0947356 16:-0.0376988 17:-0.247513 18:0.147303 19:0.0662039 20:0.187008 21:-0.115946 22:-0.0628235 23:0.171727 24:-0.00177812 25:0.106309 26:-0.442449 27:0.0205025 28:0.480195 29:-0.49802 30:0.423142 31:-0.163354 32:0.416822 33:-0.331759 34:-0.00500803 35:0.0237412 36:0.264503 37:-0.454072 38:0.310434 39:0.218699 40:-0.138392 41:-0.0941578 42:0.0854189 43:0.251367 44:-0.527699 45:0.0951517 46:0.579852 47:-0.797573 48:0.445769 49:-0.219411 50:0.0425499 51:-0.420804 52:-0.186148 53:0.383486 54:-0.1164 55:-0.150177 56:-0.126569 57:0.321296 58:-0.178137 59:0.379966 60:-0.322404 61:-0.0112073 62:0.0929274 63:0.0357908 64:0.0225919 65:-0.253096 66:0.176583 67:-0.123082 68:0.178029 69:0.231965 70:-0.596621 71:0.50876 72:-0.498691 73:0.283547 74:-0.219614 75:0.180271 76:-0.935542 77:-0.895289 78:-0.93424 79:0.453076 80:-0.0158375 
0.003127112224773472 0 0 1:0.094571 2:-0.775884 3:0.564545 4:-0.231967 5:0.240923 6:-0.213498 7:-0.0334598 8:-0.146426 9:0.236947 10:-0.170397 11:0.234124 12:-0.253893 13:-0.156902 14:0.157965 15:0.0169813 16:0.0855622 17:-0.212317 18:0.0730076 19:0.105562 20:0.0214114 21:0.0892681 22:-0.192463 23:0.149243 24:0.184576 25:-0.172529 26:-0.0100788 27:-0.689648 28:0.785564 29:-0.241244 30:0.368745 31:-0.212672 32:0.199972 33:-0.0707221 34:-0.0831611 35:-0.0196136 36:0.0771091 37:-0.132422 38:0.0602051 39:0.244875 40:-0.0977443 41:0.104465 42:-0.256001 43:-0.00797437 44:0.0386137 45:-0.229271 46:0.253096 47:0.0943833 48:0.0564864 49:-0.241006 50:0.16062 51:0.101466 52:-0.762649 53:0.614958 54:-0.243198 55:0.202583 56:-0.218926 57:0.129589 58:0.100489 59:-0.0310248 60:-0.05989 61:0.141448 62:-0.159923 63:0.181207 64:-0.014233 65:-0.246096 66:0.00037882 67:0.12172 68:0.150283 69:-0.140429 70:-0.273485 71:0.127907 72:-0.0382862 73:-0.0418405 74:0.0392697 75:-0.0813742 76:-0.96168 77:-0.967702 78:-0.982972 79:0.434194 80:0.00252441 
0.189644148106781 0 0 1:-0.173926 2:-0.40929 3:0.518456 4:-0.438649 5:0.191185 6:-0.25248 7:0.347193 8:-0.254949 9:0.121259 10:-0.204125 11:0.208412 12:-0.128759 13:-0.0392144 14:0.0825539 15:-0.190207 16:0.288291 17:-0.109518 18:-0.010487 19:0.0823137 20:-0.0400742 21:0.10909 22:-0.0249599 23:0.0564253 24:-0.172167 25:0.313276 26:-0.296674 27:-0.3486 28:0.757898 29:-0.379907 30:0.124053 31:0.0529311 32:0.300416 33:-0.000914132 34:-0.406781 35:0.0392799 36:0.262133 37:-0.216191 38:0.051324 39:0.338939 40:-0.240719 41:0.0103363 42:0.0154475 43:-0.0131501 44:-0.0808728 45:-0.270341 46:0.553076 47:-0.172475 48:-0.15268 49:0.0498061 50:0.158158 51:-0.314602 52:-0.238607 53:0.411176 54:-0.373288 55:0.081938 56:0.00645727 57:0.325793 58:-0.28638 59:0.0820485 60:0.115294 61:0.0478745 62:-0.196031 63:0.338075 64:-0.312307 65:0.0648634 66:-0.0736489 67:0.123755 68:-0.041107 69:-0.0374232 70:0.123084 71:-0.323842 72:0.256525 73:-0.200774 74:-0.0590105 75:0.243296 76:-0.916638 77:-0.833565 78:-0.926634 79:0.456409 80:-0.0286899 
0.4259718485263452 0 0 1:-0.340998 2:-0.177896 3:0.42608 4:-0.53079 5:0.303353 6:-0.240195 7:0.303403 8:-0.385459 9:0.221582 10:-0.097538 11:0.025658 12:0.00921146 13:-0.124704 14:0.126326 15:-0.213681 16:0.315053 17:-0.155004 18:-0.120461 19:0.283639 20:-0.151875 21:0.16618 22:-0.0256622 23:-0.0218745 24:0.0874425 25:-0.0149319 26:-0.497461 27:-0.0251467 28:0.600965 29:-0.399218 30:0.0981756 31:0.117144 32:0.222029 33:-0.0461606 34:-0.357716 35:0.199257 36:0.119223 37:-0.323939 38:0.167519 39:0.271605 40:-0.225691 41:0.0549491 42:-0.01151 43:-0.0216699 44:-0.0688277 45:-0.269135 46:0.538366 47:-0.133968 48:-0.111262 49:0.0682228 50:-0.00461738 51:-0.334019 52:-0.261849 53:0.470727 54:-0.385113 55:0.0779812 56:0.0105931 57:0.258598 58:-0.211412 59:0.0853673 60:-0.0594977 61:0.264989 62:-0.325269 63:0.368371 64:-0.375776 65:0.156986 66:0.0121625 67:-0.114143 68:0.291877 69:-0.189186 70:0.170931 71:-0.36101 72:0.301541 73:-0.176168 74:-0.168254 75:0.247949 76:-0.904825 77:-0.842176 78:-0.914302 79:0.495014 80:-0.00927123 
15.33062429226588 0 0 1:-0.0952537 2:-0.546189 3:0.500511 4:-0.388605 5:0.241835 6:-0.157052 7:0.0352759 8:0.0287316 9:-0.0362624 10:-0.117803 11:0.198064 12:-0.0627142 13:-0.0959651 14:0.111653 15:-0.0659747 16:0.105002 17:-0.0122467 18:-0.0592818 19:-0.00167846 20:-0.0972053 21:0.307611 22:0.112042 23:-0.237288 24:0.064012 25:0.135078 26:0.0817234 27:-0.795512 28:0.750735 29:-0.262625 30:0.423019 31:-0.0714781 32:0.120533 33:-0.0844724 34:-0.239037 35:0.0230174 36:0.188175 37:0.0475263 38:-0.0834416 39:-0.0429201 40:-0.0434725 41:0.089995 42:0.122145 43:0.0909105 44:-0.219488 45:-0.249044 46:0.212129 47:0.292109 48:0.0996774 49:-0.21877 50:-0.0969458 51:0.0937052 52:-0.694135 53:0.579988 54:-0.345785 55:0.138906 56:-0.0458585 57:0.106712 58:-0.0227515 59:-0.0239757 60:0.131071 61:-0.0229382 62:0.0530182 63:-0.022138 64:-0.0548027 65:-0.0755074 66:0.0200084 67:0.0275622 68:0.155884 69:-0.219424 70:0.0503011 71:-0.0603598 72:-0.0675866 73:0.0879636 74:0.0216068 75:-0.181144 76:-0.931544 77:-0.92059 78:-0.986396 79:0.0936349 80:0.0993652 
2.507131313810882 0 0 1:0.51811 2:-0.932713 3:0.499725 4:-0.482152 5:0.148675 6:0.0259743 7:-0.00192316 8:0.0567329 9:0.0435351 10:-0.262505 11:0.313455 12:-0.380383 13:0.0590107 14:0.328217 15:-0.207709 16:0.0942205 17:0.0625582 18:-0.233394 19:0.0831089 20:0.203323 21:0.249784 22:0.0110429 23:-0.299924 24:0.262684 25:-0.454612 26:0.490003 27:-0.726467 28:0.65927 29:-0.34026 30:0.308683 31:-0.122251 32:0.0145488 33:0.106721 34:-0.0701006 35:-0.228597 36:0.117319 37:-0.0975875 38:-0.166442 39:0.346247 40:-0.0237977 41:-0.168879 42:0.050566 43:-0.18053 44:-0.0367129 45:-0.182403 46:0.290347 47:0.239449 48:-0.102484 49:0.165305 50:-1 51:0.558164 52:-0.877499 53:0.508337 54:-0.444536 55:0.260822 56:0.143908 57:0.140283 58:-0.357229 59:0.164353 60:0.0590096 61:0.146684 62:-0.0416117 63:-0.0479882 64:-0.420906 65:0.164224 66:0.234446 67:-0.138774 68:0.126787 69:-0.126804 70:-0.372769 71:0.101218 72:0.219249 73:-0.163747 74:-0.171428 75:-0.0328548 76:-0.9631 77:-0.948511 78:-0.988999 79:0.0975472 80:0.0969102 
1.630941735478601 0 0 1:0.584877 2:-0.913618 3:0.40009 4:-0.42987 5:0.130924 6:-0.00110009 7:0.0188792 8:0.0036951 9:0.110721 10:-0.212506 11:0.197556 12:-0.233857 13:-0.0540536 14:0.171677 15:0.016734 16:-0.0577567 17:-0.00482756 18:0.0106449 19:-0.0169124 20:0.0799952 21:0.281676 22:-0.0382892 23:-0.134769 24:-0.0149668 25:-0.151982 26:0.482646 27:-0.641706 28:0.594405 29:-0.355764 30:0.310326 31:-0.0780083 32:0.00513634 33:0.0664985 34:-0.0957169 35:-0.184757 36:0.113908 37:-0.092933 38:-0.119295 39:0.195429 40:-0.0229361 41:-0.0821388 42:0.0590315 43:-0.238313 44:-0.050025 45:-0.19304 46:0.322486 47:0.130953 48:-0.127085 49:0.162729 50:-0.83975 51:0.628795 52:-0.856408 53:0.432256 54:-0.416285 55:0.274121 56:0.0656047 57:0.147348 58:-0.264706 59:0.11528 60:0.0518717 61:0.183478 62:-0.107288 63:-0.00546525 64:-0.318507 65:0.0293172 66:0.176939 67:-0.0325051 68:0.10881 69:-0.176063 70:-0.233213 71:0.0255814 72:0.0968235 73:-0.144889 74:-0.13847 75:0.0607022 76:-0.960337 77:-0.945812 78:-0.987749 79:0.101097 80:0.0912076 
4.647472594176541 0.8468050220556936 0 1:-0.449489 2:0.141527 3:0.0295004 4:-0.452446 5:0.416573 6:-0.324169 7:0.0701827 8:0.12432 9:-0.028627 10:-0.254008 11:0.475814 12:-0.386833 13:0.101857 14:0.0601503 15:-0.162826 16:0.23619 17:-0.221849 18:0.140429 19:-0.0154797 20:0.0339537 21:0.347568 22:-0.396918 23:0.152641 24:0.0863047 25:0.106921 26:-0.129977 27:-0.362866 28:0.378234 29:-0.0757684 30:0.148333 31:-0.0641096 32:0.0737072 33:0.108718 34:-0.10977 35:-0.135976 36:0.0549478 37:-0.0894806 38:0.144717 39:-0.0599673 40:0.115799 41:-0.0756789 42:0.0876048 43:-0.0991009 44:-0.0624706 45:0.0820002 46:0.130969 47:0.0248904 48:0.00312341 49:-0.0996773 50:0.0332952 51:-0.386083 52:0.0203284 53:0.0602705 54:-0.119968 55:0.0573993 56:-0.0139644 57:0.266442 58:-0.239301 59:0.25027 60:-0.260872 61:0.349305 62:-0.281599 63:0.21944 64:-0.224525 65:0.0856223 66:-0.071782 67:0.0512722 68:0.0908264 69:-0.0306613 70:-0.135312 71:0.083212 72:-0.0275874 73:-0.293178 74:0.268249 75:-0.0733948 76:-0.835139 77:-0.874132 78:-0.961625 79:0.117104 80:0.0561573 
7.488251752797141 0.3427851620066964 0 1:-0.49579 2:0.216871 3:-0.069175 4:-0.358379 5:0.374321 6:-0.347262 7:0.108685 8:0.173223 9:-0.225249 10:0.0548976 11:0.167009 12:-0.306037 13:0.254455 14:-0.106317 15:-0.193453 16:0.525732 17:-0.585126 18:0.444572 19:-0.229829 20:0.191319 21:0.159898 22:-0.202727 23:-0.0794026 24:0.286273 25:-0.00986774 26:-0.11609 27:-0.357344 28:0.360186 29:-0.125277 30:0.209397 31:-0.0985809 32:0.161209 33:0.103266 34:-0.207781 35:-0.0249202 36:-0.0814763 37:0.0764036 38:-0.0617719 39:0.207414 40:-0.100814 41:0.0431065 42:0.0821172 43:-0.16139 44:0.0208485 45:-0.0761764 46:0.244467 47:-0.114341 48:0.216748 49:-0.253908 50:0.0562813 51:-0.408513 52:0.036261 53:0.0395005 54:-0.0856458 55:0.0272066 56:0.0260314 57:0.244306 58:-0.234891 59:0.24932 60:-0.243924 61:0.271119 62:-0.173254 63:0.105062 64:-0.116589 65:-0.00885471 66:0.0195731 67:-0.00697667 68:0.0364086 69:0.151851 70:-0.386257 71:0.334177 72:-0.309795 73:0.00360954 74:0.157257 75:-0.146929 76:-0.821776 77:-0.878298 78:-0.958802 79:0.127114 80:0.0446964 
1.452898809495673 0 0 1:0.123637 2:-0.776537 3:0.498201 4:-0.214629 5:0.108589 6:-0.128767 7:0.106822 8:0.0201107 9:-0.107347 10:-0.0326679 11:-0.000960106 12:-0.0171809 13:-0.142542 14:0.321826 15:-0.159872 16:-0.0566501 17:-0.0956651 18:0.255484 19:-0.123657 20:0.00507225 21:0.294403 22:-0.0911375 23:-0.262674 24:0.237629 25:0.176725 26:0.0622888 27:-0.726664 28:0.725385 29:-0.368064 30:0.498318 31:-0.146733 32:0.159317 33:-0.0743695 34:0.0139559 35:-0.155949 36:0.00748448 37:0.0800552 38:-0.112241 39:0.245038 40:-0.026247 41:-0.0419823 42:0.0336144 43:0.106936 44:-0.211914 45:0.069214 46:0.211589 47:-0.48786 48:0.13986 49:0.0238287 50:0.139972 51:-0.0321827 52:-0.682848 53:0.670249 54:-0.347903 55:0.174873 56:-0.167847 57:0.232591 58:-0.0338711 59:-0.0830864 60:0.155359 61:0.0182022 62:-0.093871 63:0.0414063 64:-0.193735 65:0.243625 66:-0.105703 67:0.0398584 68:0.0256394 69:-0.257884 70:0.187338 71:0.14146 72:-0.307042 73:-0.0958584 74:0.228385 75:-0.0103202 76:-0.953467 77:-0.9082 78:-0.980349 79:0.109948 80:0.0977311 
0.4877018356396958 0 0 1:-0.0749094 2:-0.687243 3:0.631223 4:-0.288654 5:0.150663 6:-0.212498 7:0.218991 8:-0.215777 9:0.123342 10:-0.135916 11:0.183342 12:-0.234473 13:0.0966119 14:-0.0587637 15:0.118038 16:-0.038428 17:-0.240504 18:0.159817 19:0.0347308 20:0.160213 21:-0.00978095 22:0.124591 23:-0.0905024 24:-0.185586 25:0.445702 26:0.0593508 27:-0.819205 28:0.736295 29:-0.232861 30:0.444036 31:-0.158644 32:0.299725 33:-0.0946876 34:-0.0717067 35:-0.241095 36:0.0997755 37:0.0514897 38:-0.0963117 39:0.25904 40:-0.0428585 41:0.152963 42:-0.149515 43:-0.146406 44:-0.0620966 45:-0.0878553 46:0.251231 47:-0.0836951 48:0.386024 49:-0.237689 50:-0.0921464 51:-0.173502 52:-0.619205 53:0.795868 54:-0.4271 55:0.0254794 56:-0.0567801 57:0.192466 58:-0.0362034 59:0.0960485 60:-0.147488 61:0.0252292 62:0.0784919 63:0.112349 64:-0.313 65:0.141359 66:-0.110979 67:0.140322 68:0.180521 69:-0.302288 70:-0.121507 71:0.324867 72:-0.218703 73:-0.221241 74:0.403124 75:-0.279249 76:-0.919903 77:-0.901683 78:-0.978986 79:0.121889 80:0.130366 
7.694891172244069 0 0 1:-0.234091 2:-0.497567 3:0.662677 4:-0.372787 5:0.104165 6:-0.207731 7:0.207687 8:-0.195453 9:0.142561 10:-0.0943904 11:0.0920766 12:-0.160808 13:0.0722156 14:-0.063812 15:0.185027 16:-0.177691 17:-0.193262 18:0.215378 19:0.0707317 20:0.0276544 21:-0.00630812 22:0.00951141 23:0.0522069 24:0.0748913 25:0.0226745 26:-0.0761447 27:-0.730061 28:0.814142 29:-0.224749 30:0.466489 31:-0.195241 32:0.17183 33:-0.102305 34:-0.0620564 35:-0.188164 36:0.133959 37:0.028006 38:-0.0872424 39:0.258423 40:-0.075353 41:0.0816496 42:-0.147238 43:0.0118644 44:-0.0142895 45:-0.11048 46:0.189835 47:-0.0401866 48:0.231869 49:-0.333028 50:0.218203 51:-0.309705 52:-0.457693 53:0.738948 54:-0.490452 55:0.026356 56:0.0546337 57:0.166893 58:-0.0718176 59:0.0947505 60:-0.108483 61:0.0093263 62:0.115209 63:0.127007 64:-0.452294 65:0.222048 66:-0.0268812 67:0.0728602 68:0.0624089 69:-0.0775631 70:-0.248669 71:0.239852 72:-0.079774 73:-0.194375 74:0.161719 75:-0.0345121 76:-0.914701 77:-0.890035 78:-0.968964 79:0.121459 80:0.132202 
1.49641639360071 0 0 1:-0.410088 2:-0.203411 3:0.563426 4:-0.579989 5:0.283199 6:-0.224459 7:0.289916 8:-0.333803 9:0.0291873 10:0.0590884 11:0.0550746 12:-0.0959057 13:0.0357441 14:-0.152638 15:0.169369 16:-0.0773587 17:-0.152848 18:0.194215 19:-0.0494325 20:0.0929592 21:0.0370203 22:0.0180441 23:-0.0297461 24:0.102278 25:0.0448693 26:-0.221494 27:-0.486692 28:0.805166 29:-0.351999 30:0.289523 31:-0.0652468 32:0.327682 33:-0.169156 34:-0.269921 35:-0.0729361 36:0.26406 37:-0.047965 38:-0.142202 39:0.381951 40:-0.120527 41:-0.00525226 42:-0.0465703 43:0.0255334 44:-0.0677717 45:-0.161857 46:0.308239 47:-0.109614 48:0.258214 49:-0.389924 50:0.315132 51:-0.525419 52:-0.111123 53:0.556899 54:-0.663619 55:0.235781 56:0.286925 57:-0.158886 58:-0.0965924 59:0.217537 60:-0.145574 61:0.0401333 62:0.084513 63:0.0220281 64:-0.198326 65:0.120889 66:-0.133598 67:0.163779 68:-0.0897577 69:0.118852 70:-0.272003 71:0.179327 72:-0.0858035 73:-0.16996 74:0.160747 75:-0.0310318 76:-0.904059 77:-0.875019 78:-0.951809 79:0.125881 80:0.14273 
4.231770813430897 0 0 1:-0.448881 2:-0.159048 3:0.575742 4:-0.66063 5:0.350636 6:-0.19017 7:0.156352 8:-0.21206 9:0.0170988 10:0.0393137 11:0.0109247 12:0.00215556 13:-0.115269 14:0.0616929 15:-0.0711539 16:0.185561 17:-0.265755 18:0.130774 19:0.143229 20:-0.0708002 21:0.107645 22:-0.00422829 23:-0.106358 24:0.229774 25:-0.0208099 26:-0.245326 27:-0.463804 28:0.813803 29:-0.350133 30:0.244386 31:-0.00850787 32:0.287394 33:-0.164781 34:-0.289806 35:-0.0277789 36:0.271685 37:-0.127633 38:-0.0589063 39:0.323479 40:-0.0603539 41:-0.0648862 42:0.0317369 43:-0.0345731 44:-0.0983616 45:-0.0903453 46:0.287292 47:-0.0609125 48:0.147137 49:-0.325267 50:0.328296 51:-0.541181 52:-0.058639 53:0.44884 54:-0.53605 55:0.25765 56:0.0605962 57:0.108992 58:-0.126701 59:0.0261124 60:0.0534028 61:0.0600195 62:-0.09432 63:0.125983 64:-0.0403892 65:-0.27133 66:0.282619 67:-0.172335 68:0.0346095 69:0.18895 70:-0.126478 71:-0.100614 72:-0.0498468 73:0.166055 74:-0.268172 75:0.193347 76:-0.830943 77:-0.801248 78:-0.955581 79:0.0870266 80:0.0877294 
0.1145568837838293 0 0 1:0.579075 2:-0.627918 3:0.138726 4:-0.467022 5:0.0699314 6:0.187992 7:-0.18729 8:0.278934 9:-0.228394 10:-0.0707129 11:-0.0160215 12:0.181504 13:-0.311241 14:0.375623 15:-0.239967 16:0.298129 17:-0.239054 18:0.32004 19:-0.111336 20:0.238535 21:-0.0889689 22:-0.103355 23:-0.197131 24:0.0583314 25:-0.0754824 26:0.898265 27:-0.343162 28:0.620406 29:-0.486432 30:-0.129888 31:-0.375894 32:-0.482361 33:-0.115731 34:-0.376709 35:-0.131506 36:-0.104714 37:0.198099 38:-0.0420146 39:0.478137 40:0.0325609 41:0.24571 42:0.0521733 43:0.0214046 44:-0.0983658 45:0.0205262 46:0.0543339 47:-0.123671 48:-0.0213344 49:-0.165083 50:-0.0667674 51:0.643338 52:-0.855554 53:0.525899 54:-0.632855 55:0.479171 56:-0.1393 57:0.25549 58:0.0596035 59:-0.200557 60:0.145302 61:-0.0282836 62:-0.188858 63:0.0887128 64:-0.10201 65:-0.0367565 66:-0.0231061 67:-0.0815361 68:0.0671943 69:-0.054671 70:-0.0029596 71:0.116753 72:-0.121041 73:0.0456817 74:-0.082092 75:-0.10097 76:-0.942453 77:-0.887003 78:-0.982435 79:0.0905414 80:0.0517654 
0 0.1308487514456256 0 1:0.539285 2:-0.634472 3:0.131158 4:-0.451253 5:0.0969977 6:0.225385 7:-0.182225 8:0.29418 9:-0.24865 10:-0.0808517 11:-0.0399758 12:0.163872 13:-0.361839 14:0.345005 15:-0.284653 16:0.284721 17:-0.24337 18:0.339437 19:-0.0987489 20:0.266212 21:-0.0714679 22:-0.0654607 23:-0.162913 24:0.102466 25:-0.0578802 26:0.808757 27:-0.419069 28:0.498948 29:-0.584485 30:-0.195398 31:-0.340633 32:-0.382502 33:0.0724335 34:-0.164152 35:0.1 36:0.113656 37:0.332955 38:0.0270261 39:0.491593 40:-0.0484023 41:0.140439 42:-0.0830578 43:-0.116837 44:-0.197794 45:-0.0442688 46:0.0348462 47:-0.0815066 48:0.0386401 49:-0.115384 50:0.0355485 51:0.421585 52:-0.874196 53:0.561234 54:-0.595475 55:0.62681 56:-0.118346 57:0.26 58:0.0322501 59:-0.246637 60:0.166845 61:-0.0391775 62:-0.166162 63:0.121868 64:-0.0883317 65:0.00125402 66:0.000378462 67:-0.0434163 68:0.10603 69:-0.0603192 70:-0.0637654 71:0.0186549 72:-0.176608 73:0.0273101 74:-0.0454186 75:-0.00208716 76:-0.934446 77:-0.839943 78:-0.973135 79:0.102649 80:0.0568234 
0 0.2936711492887107 0 1:0.252876 2:-0.771235 3:0.375979 4:-0.156035 5:0.249007 6:-0.439744 7:0.166942 8:-0.0558381 9:0.172452 10:-0.111105 11:0.0303308 12:-0.362169 13:0.161972 14:0.305457 15:-0.16467 16:-0.173972 17:0.178702 18:-0.123492 19:0.264647 20:-0.196949 21:0.164047 22:0.0735254 23:-0.176978 24:0.295169 25:-0.299866 26:0.53327 27:-0.648744 28:0.288662 29:-0.324915 30:0.248764 31:-0.2495 32:0.068955 33:0.209682 34:-0.0251857 35:-0.160859 36:0.178604 37:-0.00201609 38:0.0147495 39:0.0688141 40:-0.0582091 41:0.117756 42:0.0676541 43:0.1012 44:-0.147463 45:-0.18678 46:-0.156604 47:0.143107 48:0.250866 49:-0.193292 50:-0.195981 51:-0.0132382 52:-0.510376 53:0.445887 54:-0.301769 55:0.329245 56:-0.314881 57:0.32437 58:0.0339556 59:-0.00513048 60:-0.107032 61:0.252717 62:-0.310789 63:0.102289 64:0.0317014 65:0.0173464 66:-0.116981 67:-0.175301 68:0.517784 69:-0.175109 70:-0.150782 71:-0.132359 72:-0.0190164 73:0.21829 74:-0.222789 75:-0.0695021 76:-0.946798 77:-0.930301 78:-0.976779 79:0.134304 80:0.0612174 
1.474535272631858 0 0 1:-0.312149 2:-0.112247 3:0.158793 4:-0.238053 5:0.12253 6:-0.168935 7:0.184531 8:-0.154917 9:0.149955 10:-0.137664 11:-0.113882 12:0.232961 13:-0.190129 14:0.0889396 15:-0.194046 16:0.360748 17:-0.374464 18:0.330554 19:-0.230237 20:0.107305 21:0.345352 22:-0.319863 23:-0.0674802 24:0.377435 25:-0.256156 26:-0.150487 27:-0.317055 28:0.465563 29:-0.30036 30:0.500135 31:-0.227509 32:0.17672 33:-0.0695736 34:0.054794 35:-0.0105961 36:-0.246275 37:0.0785002 38:-0.0952009 39:0.438553 40:-0.415681 41:0.42767 42:-0.280603 43:0.0846803 44:-0.408205 45:0.437014 46:-0.250698 47:-0.02879 48:0.0302588 49:-0.00159627 50:-0.0403763 51:-0.249816 52:-0.303184 53:0.427493 54:-0.389692 55:0.267851 56:-0.013758 57:-0.07044 58:0.209736 59:-0.294992 60:0.249747 61:0.147516 62:-0.128766 63:-0.0335123 64:0.00470147 65:-0.185921 66:0.0158589 67:0.180884 68:-0.00533437 69:-0.112158 70:0.0420511 71:-0.000806457 72:-0.29118 73:0.0410161 74:0.201929 75:-0.184517 76:-0.900353 77:-0.91423 78:-0.961497 79:0.155645 80:0.0551223 
1.862690078274695 0.08462489574856905 0 1:-0.352714 2:0.161303 3:-0.165769 4:-0.0957217 5:-0.0219444 6:0.0238734 7:-0.0311258 8:0.0147251 9:-0.0980016 10:0.153643 11:-0.236779 12:0.15885 13:-0.134622 14:0.0841881 15:-0.189402 16:0.366159 17:-0.406605 18:0.321904 19:-0.114294 20:0.0911419 21:0.127334 22:-0.129982 23:-0.0150525 24:0.0117919 25:0.153924 26:0.0398458 27:-0.468796 28:0.429824 29:-0.265284 30:0.423535 31:-0.210182 32:0.189853 33:0.0146735 34:-0.154531 35:0.040132 36:-0.0767639 37:0.0610925 38:-0.0810223 39:0.153145 40:-0.106042 41:0.155599 42:-0.148671 43:-0.0237052 44:-0.0659296 45:0.0110818 46:0.142617 47:-0.058079 48:0.193762 49:-0.188356 50:-0.0457059 51:-0.166276 52:-0.16846 53:0.25144 54:-0.239323 55:0.18319 56:-0.158611 57:0.217059 58:-0.0876319 59:-0.0285264 60:0.0235771 61:0.114905 62:-0.204865 63:0.128378 64:-0.0499813 65:-0.130418 66:0.0679029 67:-0.0547231 68:0.214524 69:-0.214299 70:0.137655 71:-0.191429 72:-0.0232464 73:-0.210033 74:0.41401 75:-0.335999 76:-0.909203 77:-0.93304 78:-0.978115 79:0.175835 80:0.0289447 
0.241059107066746 0 0 1:-0.207787 2:-0.479426 3:0.615105 4:-0.341928 5:0.0712607 6:-0.349114 7:0.473303 8:-0.223433 9:0.00047208 10:-0.0453574 11:0.0511653 12:0.0270637 13:-0.256924 14:0.283613 15:-0.117552 16:-0.0992632 17:0.0335416 18:-0.0835864 19:0.338185 20:-0.121989 21:0.139754 22:0.0205018 23:-0.42014 24:0.663722 25:-0.361318 26:-0.0419568 27:-0.661826 28:0.655709 29:-0.102916 30:0.290563 31:-0.206526 32:0.186181 33:-0.0129359 34:-0.0457349 35:-0.0659459 36:-0.0432057 37:0.00745803 38:-0.0618984 39:0.164932 40:0.0841297 41:0.0243336 42:-0.120162 43:-0.0319459 44:0.0823109 45:-0.213226 46:0.147479 47:0.119507 48:-0.113077 49:0.0865439 50:-0.0807095 51:-0.2297 52:-0.406399 53:0.576452 54:-0.455828 55:0.330136 56:-0.280443 57:0.247286 58:-0.0562099 59:0.0044655 60:0.211415 61:-0.116667 62:-0.163096 63:0.25479 64:-0.177348 65:0.16378 66:-0.233651 67:0.0607258 68:0.115186 69:0.0403128 70:-0.0315116 71:-0.194339 72:-0.163047 73:0.324057 74:-0.102889 75:-0.0951997 76:-0.948624 77:-0.933091 78:-0.977067 79:0.199799 80:0.414526 
2.082603879348588 0 0 1:-0.209494 2:-0.458596 3:0.58388 4:-0.357274 5:0.0944613 6:-0.282937 7:0.358198 8:-0.171812 9:0.0435025 10:-0.096885 11:-0.00323412 12:0.195184 13:-0.398092 14:0.274981 15:-0.0937596 16:-0.0470356 17:-0.0662969 18:0.0287101 19:0.372571 20:-0.397887 21:0.439661 22:-0.0571132 23:-0.41984 24:0.52427 25:-0.173817 26:-0.0757051 27:-0.629376 28:0.67891 29:-0.160394 30:0.356502 31:-0.269788 32:0.244957 33:-0.000516731 34:-0.089259 35:-0.0769414 36:0.00544831 37:-0.0544403 38:0.00128384 39:0.176999 40:0.0341789 41:0.0916296 42:-0.182549 43:-0.0413245 44:0.0475293 45:-0.0340173 46:-0.0523082 47:0.187219 48:-0.0588844 49:0.0545955 50:-0.118924 51:-0.276367 52:-0.351651 53:0.566697 54:-0.515961 55:0.349913 56:-0.245575 57:0.335146 58:-0.212665 59:0.0907975 60:0.186875 61:-0.17937 62:-0.033717 63:0.243108 64:-0.229806 65:0.0768939 66:-0.194374 67:0.200761 68:-0.0843795 69:0.140668 70:-0.00307279 71:-0.376198 72:0.0626844 73:0.271535 74:-0.174083 75:-0.0324688 76:-0.942879 77:-0.936802 78:-0.975423 79:0.194635 80:0.409716 
0.03499891352620212 0 0 1:-0.130475 2:-0.555824 3:0.56924 4:-0.32502 5:0.165877 6:-0.28961 7:0.269093 8:-0.157062 9:0.0949752 10:-0.185455 11:0.0822089 12:0.126347 13:-0.242861 14:0.177763 15:-0.154651 16:0.121858 17:-0.0895216 18:-0.0753199 19:0.25582 20:-0.153659 21:0.376393 22:-0.0376243 23:-0.453175 24:0.412115 25:0.0201374 26:-0.0195417 27:-0.640949 28:0.631606 29:-0.250568 30:0.419326 31:-0.160803 32:0.189376 33:0.0201561 34:-0.0722831 35:-0.0706666 36:-0.089287 37:0.0354306 38:0.0204623 39:0.168913 40:-0.0977667 41:0.0597454 42:0.00481114 43:-0.128312 44:-0.0743063 45:0.172445 46:-0.0459248 47:0.0860093 48:-0.0128579 49:-0.0159448 50:-0.0760033 51:-0.228204 52:-0.415816 53:0.588731 54:-0.463897 55:0.240016 56:-0.168098 57:0.306864 58:-0.215843 59:0.106658 60:0.110124 61:-0.0314671 62:-0.126908 63:0.250327 64:-0.185243 65:-0.0166599 66:-0.0601944 67:-0.00986058 68:0.18646 69:0.0217488 70:-0.084801 71:-0.316122 72:0.106714 73:0.178011 74:-0.0864682 75:-0.0402079 76:-0.938806 77:-0.94758 78:-0.962964 79:0.200969 80:0.405569 
1.558581644753225 0 0.7476129830827293 1:-0.40713 2:-0.126949 3:0.410972 4:-0.48568 5:0.234392 6:-0.186641 7:0.0732511 8:0.0187335 9:0.00944138 10:-0.307809 11:0.57413 12:-0.384723 13:-0.0651477 14:0.226748 15:-0.164921 16:0.23461 17:-0.164606 18:0.101167 19:0.0577409 20:0.020206 21:-0.0361352 22:0.114358 23:-0.187224 24:0.342272 25:-0.155917 26:-0.461312 27:-0.0789775 28:0.491864 29:-0.167989 30:0.222683 31:-0.212454 32:0.256649 33:-0.149675 34:0.00737383 35:-0.0144357 36:-0.230897 37:0.347718 38:-0.417183 39:0.370886 40:-0.215615 41:0.223498 42:0.234975 43:-0.640693 44:0.321093 45:-0.118114 46:0.117241 47:-0.204593 48:0.105984 49:0.164215 50:-0.375072 51:-0.378703 52:-0.30802 53:0.63719 54:-0.472165 55:0.0936501 56:-0.0429299 57:0.219846 58:-0.0627614 59:-0.0765916 60:0.157992 61:-0.0874999 62:0.108595 63:-0.152459 64:0.106173 65:-0.203464 66:0.0831453 67:-0.129281 68:0.242701 69:0.121596 70:-0.23187 71:-0.0295959 72:0.0201075 73:-0.2623 74:0.341064 75:-0.133881 76:-0.76754 77:-0.881778 78:-0.931748 79:0.359554 80:-0.0568383 
0.4739449084601719 0 0 1:0.0620548 2:-0.661723 3:0.54745 4:-0.329078 5:0.208294 6:-0.292171 7:0.0690374 8:-0.0187141 9:-0.0559518 10:-0.0165652 11:0.13289 12:-0.00904419 13:-0.153757 14:0.14842 15:-0.209152 16:0.104164 17:-0.0122583 18:0.0654401 19:-0.0518252 20:0.286254 21:-0.0955931 22:-0.12629 23:-0.130461 24:0.352115 25:0.0755681 26:-0.216721 27:-0.428876 28:0.738382 29:-0.417534 30:0.479129 31:-0.163463 32:0.1557 33:-0.158832 34:0.110816 35:-0.196513 36:0.0632544 37:0.03643 38:0.0472707 39:0.0529542 40:-0.229407 41:0.18658 42:0.0848379 43:-0.0735036 44:-0.275416 45:0.0167087 46:0.317196 47:-0.13221 48:0.0774525 49:-0.0464645 50:-0.00263614 51:-0.0283868 52:-0.630996 53:0.587273 54:-0.313215 55:0.271833 56:-0.228306 57:0.285847 58:-0.209384 59:0.00239379 60:0.0968671 61:0.0965526 62:-0.112293 63:0.0690629 64:-0.191793 65:0.114002 66:-0.0653196 67:0.00976273 68:0.263779 69:-0.19764 70:0.0664485 71:-0.123486 72:-0.112827 73:0.104844 74:0.169155 75:-0.298551 76:-0.974628 77:-0.949923 78:-0.976535 79:0.381752 80:-0.117151 
6.906906308879882 0 0 1:-0.052041 2:-0.659734 3:0.64125 4:-0.335405 5:0.162722 6:-0.196438 7:0.0370297 8:-0.0783847 9:0.225409 10:-0.195672 11:0.10491 12:0.0109338 13:-0.194857 14:0.0461155 15:0.121059 16:-0.0477413 17:-0.261431 18:0.222927 19:-0.0111742 20:0.130879 21:0.0807276 22:-0.2034 23:0.0453938 24:0.17132 25:-0.0436543 26:-0.0307911 27:-0.647755 28:0.766261 29:-0.268418 30:0.262847 31:-0.0745705 32:0.152035 33:0.017475 34:-0.0396415 35:-0.130344 36:-0.0605639 37:0.0556206 38:-0.0023435 39:0.19918 40:-0.00474348 41:-0.126879 42:0.143317 43:-0.165471 44:-0.0334844 45:-0.117293 46:0.370489 47:-0.0658897 48:-0.0912266 49:-0.135562 50:0.113228 51:0.175093 52:-0.760814 53:0.642249 54:-0.309043 55:0.107652 56:-0.15881 57:0.287402 58:-0.0392872 59:-0.136152 60:0.0780578 61:0.184317 62:-0.171909 63:-0.0194101 64:0.00505916 65:0.029848 66:-0.0994903 67:0.0152561 68:0.232988 69:-0.0443224 70:-0.142989 71:-0.0536326 72:0.0385666 73:-0.100457 74:-0.117511 75:0.0336893 76:-0.969089 77:-0.976118 78:-0.992253 79:0.352987 80:0.234611 
0.8764646925845899 0 0 1:0.266448 2:-0.890628 3:0.504531 4:-0.230881 5:0.176355 6:-0.226216 7:0.12996 8:-0.103357 9:-0.0540469 10:-0.0630588 11:0.266931 12:0.0604363 13:-0.296198 14:-0.0761817 15:0.0216222 16:0.146926 17:0.0288794 18:-0.0408461 19:0.0218077 20:0.0274471 21:0.131941 22:-0.126781 23:0.058636 24:0.0751838 25:0.0271083 26:0.400712 27:-0.830172 28:0.596999 29:-0.284767 30:0.360424 31:-0.17212 32:0.196788 33:-0.0613352 34:-0.0327379 35:0.0150294 36:-0.126824 37:-0.0786514 38:-0.0675719 39:0.283883 40:0.0248542 41:0.0605462 42:-0.113563 43:0.191532 44:-0.210206 45:-0.359157 46:0.360579 47:0.0178019 48:-0.0708861 49:-0.0357218 50:0.0561778 51:0.486093 52:-0.77632 53:0.496965 54:-0.3046 55:0.143157 56:-0.185426 57:0.169756 58:-0.0743362 59:-0.0830688 60:0.0565636 61:0.0536014 62:-0.0804105 63:0.0731192 64:-0.00385289 65:-0.104593 66:0.0161152 67:0.104383 68:0.124185 69:-0.055151 70:-0.104582 71:0.0995177 72:-0.10417 73:-0.103584 74:-0.189378 75:-0.0182622 76:-0.983208 77:-0.993551 78:-0.997256 79:0.209789 80:0.260674 
9.771769554265712 0 0 1:0.250628 2:-0.823406 3:0.486613 4:-0.308038 5:0.200287 6:-0.263841 7:0.172955 8:-0.103431 9:0.0114554 10:-0.0440864 11:0.19555 12:0.0472247 13:-0.356146 14:0.0720138 15:-0.00519098 16:-0.0201485 17:0.0790569 18:-0.165731 19:0.194672 20:0.104297 21:0.0461417 22:0.0200176 23:-0.0190618 24:-0.0439463 25:0.0884547 26:0.384004 27:-0.875993 28:0.61842 29:-0.287279 30:0.364155 31:-0.213513 32:0.207863 33:0.0507424 34:-0.0873649 35:0.0589534 36:-0.0614377 37:-0.0759398 38:-0.0446056 39:0.140796 40:0.071395 41:0.16046 42:-0.0993007 43:0.0602275 44:-0.159758 45:-0.340459 46:0.383153 47:0.00464547 48:-0.111098 49:-0.0807279 50:0.106748 51:0.407158 52:-0.816905 53:0.483552 54:-0.306107 55:0.170928 56:-0.164765 57:0.115834 58:0.00887878 59:-0.0496589 60:0.135568 61:0.0924157 62:-0.0532865 63:0.0364605 64:-0.0358489 65:-0.0970921 66:0.019134 67:0.110335 68:0.0804127 69:-0.0557227 70:-0.0602609 71:0.174314 72:-0.143709 73:-0.0537981 74:-0.332087 75:0.0599172 76:-0.985179 77:-0.992251 78:-0.994657 79:0.209867 80:0.257363 
2.246773351260094 0 0 1:-0.381831 2:-0.25194 3:0.57286 4:-0.479112 5:0.158253 6:-0.166133 7:0.196084 8:-0.161055 9:-0.0216909 10:-0.107077 11:0.305134 12:-0.195224 13:-0.000912435 14:-0.121017 15:0.183121 16:-0.0777105 17:-0.22968 18:0.143791 19:0.0683012 20:0.165554 21:-0.0171951 22:-0.0885668 23:0.0572563 24:-0.00061126 25:0.250333 26:-0.188471 27:-0.46223 28:0.721074 29:-0.31278 30:0.412225 31:-0.136945 32:-0.00304694 33:0.117967 34:-0.162886 35:0.102019 36:-0.369943 37:0.143685 38:0.13097 39:-0.0793368 40:-0.146502 41:0.297058 42:-0.290208 43:0.162476 44:-0.337686 45:0.0480648 46:0.463025 47:-0.354481 48:0.178887 49:-0.235473 50:0.352981 51:-0.156123 52:-0.465412 53:0.477687 54:-0.259115 55:0.200943 56:-0.103236 57:0.0128592 58:0.120508 59:-0.0351691 60:-0.002866 61:0.0218411 62:-0.053224 63:0.18541 64:-0.14187 65:-0.294379 66:0.300438 67:-0.24666 68:0.355776 69:-0.274599 70:0.179285 71:-0.136887 72:0.0105464 73:-0.159088 74:0.0857157 75:0.056241 76:-0.768853 77:-0.780941 78:-0.933442 79:0.151168 80:-0.129446 
1.118151884205181 0 0 1:-0.440094 2:-0.162203 3:0.526341 4:-0.480292 5:0.120434 6:-0.115394 7:0.156495 8:-0.0801177 9:-0.085297 10:-0.0465073 11:0.2735 12:-0.263588 13:0.09512 14:-0.204257 15:0.256364 16:-0.141849 17:-0.122258 18:0.0663372 19:0.0710362 20:0.0728957 21:0.177364 22:-0.304817 23:0.259963 24:-0.0975476 25:0.211165 26:-0.250685 27:-0.370934 28:0.711574 29:-0.368467 30:0.371658 31:-0.104673 32:0.0530091 33:0.141027 34:-0.236571 35:0.117252 36:-0.370453 37:0.197104 38:0.132429 39:-0.137465 40:-0.141248 41:0.329851 42:-0.337298 43:0.195674 44:-0.347622 45:0.0662786 46:0.459341 47:-0.415583 48:0.179338 49:-0.146195 50:0.207394 51:-0.175385 52:-0.446703 53:0.483706 54:-0.271471 55:0.209149 56:-0.135442 57:0.0427724 58:0.109746 59:-0.0139105 60:-0.0109371 61:0.0239097 62:-0.0860891 63:0.226761 64:-0.184421 65:-0.25075 66:0.283038 67:-0.23735 68:0.357806 69:-0.259142 70:0.118115 71:-0.127078 72:0.0329144 73:-0.140891 74:0.0859912 75:0.0140048 76:-0.786491 77:-0.783331 78:-0.930554 79:0.15801 80:-0.120584 
13.46580778452976 0 0 1:0.23066 2:-0.436089 3:0.0887911 4:-0.241597 5:0.111113 6:0.0975193 7:-0.0338919 8:0.018565 9:-0.169576 10:-0.0184549 11:-0.0345641 12:0.188748 13:-0.523075 14:0.130574 15:0.00573131 16:0.0575492 17:-0.286814 18:0.138398 19:-0.0439152 20:-0.000130426 21:0.270181 22:-0.0244 23:0.0303911 24:0.0973704 25:-0.0792436 26:0.114414 27:-0.38616 28:0.402601 29:-0.391196 30:0.439918 31:-0.174049 32:0.191819 33:0.0274651 34:-0.179902 35:-0.0576973 36:0.0521824 37:0.0456419 38:-0.426241 39:0.433064 40:-0.347071 41:0.163403 42:-0.0135629 43:-0.21112 44:0.215447 45:-0.151716 46:0.16558 47:0.0495713 48:-0.0178182 49:-0.0270783 50:0.0697679 51:0.480343 52:-0.764629 53:0.435031 54:-0.307939 55:0.290901 56:-0.12986 57:0.299429 58:-0.152783 59:-0.0966929 60:0.071988 61:0.15287 62:-0.131766 63:-0.044462 64:0.0774469 65:-0.308102 66:0.0833634 67:-0.0353739 68:0.136923 69:-0.0719497 70:-0.0520442 71:-0.166028 72:-0.0138119 73:-0.12827 74:0.0283444 75:0.0498874 76:-0.946763 77:-0.954563 78:-0.988634 79:0.0856465 80:-0.029177 
0.5694123447539335 0 0 1:0.0298424 2:-0.611541 3:0.477944 4:-0.332495 5:0.185021 6:-0.186056 7:0.136029 8:-0.149002 9:0.124578 10:-0.0941817 11:-0.0199068 12:-0.00469808 13:-0.00764365 14:-0.229253 15:0.219224 16:0.0222471 17:-0.0413001 18:-0.178248 19:0.236398 20:0.141064 21:0.0797852 22:-0.144576 23:-0.124247 24:0.194231 25:0.118603 26:-0.150159 27:-0.3229 28:0.448684 29:-0.293717 30:0.410605 31:-0.136705 32:0.126131 33:0.0059935 34:-0.106771 35:-0.0165687 36:-0.100166 37:0.0744462 38:0.0466784 39:-0.11481 40:-0.000912825 41:0.195534 42:-0.0944031 43:-0.170588 44:0.156746 45:-0.255181 46:0.11414 47:0.291473 48:-0.128863 49:-0.0282104 50:0.0965516 51:0.0792128 52:-0.524443 53:0.438129 54:-0.368729 55:0.286322 56:-0.057745 57:0.143507 58:-0.105091 59:0.01755 60:0.0316119 61:0.15825 62:-0.119601 63:-0.0568246 64:-0.0179243 65:-0.0895939 66:0.010408 67:0.066512 68:0.0702759 69:-0.225062 70:0.130451 71:-0.0468879 72:0.0183746 73:-0.207136 74:0.00356441 75:-0.0311957 76:-0.914477 77:-0.889902 78:-0.975398 79:0.112256 80:0.093105 
3.564609424678331 0 0 1:0.124708 2:-0.667465 3:0.44417 4:-0.335829 5:0.186631 6:-0.152604 7:0.141573 8:-0.119283 9:0.0259293 10:0.00306501 11:-0.0742211 12:-0.0255294 13:0.0309056 14:-0.263672 15:0.232596 16:0.0467895 17:-0.117751 18:-0.239908 19:0.275658 20:0.168977 21:0.101636 22:-0.102258 23:-0.0726179 24:-0.0292605 25:0.313291 26:-0.0974991 27:-0.449297 28:0.575121 29:-0.353301 30:0.371068 31:-0.0687672 32:0.166689 33:-0.0290762 34:-0.0783561 35:0.0547367 36:-0.217507 37:0.155555 38:-0.114987 39:-0.0141722 40:0.0242757 41:0.105171 42:-0.0259547 43:-0.233015 44:0.137211 45:2.13943e-005 46:0.00278097 47:0.282965 48:-0.117178 49:-0.131729 50:0.166772 51:0.205623 52:-0.669616 53:0.500686 54:-0.396304 55:0.27831 56:-0.0404874 57:0.242211 58:-0.229978 59:0.0874638 60:0.0517507 61:0.0737666 62:-0.127166 63:0.0146536 64:-0.0807913 65:0.00255079 66:0.00250004 67:-0.00667157 68:0.142777 69:-0.238463 70:0.0851194 71:0.0585498 72:-0.168235 73:-0.0372856 74:-0.0153152 75:-0.0879755 76:-0.917617 77:-0.894698 78:-0.978998 79:0.106473 80:0.0708558 
2.648976154504446 0.5851710732017491 0.3344642408634171 1:-0.625341 2:0.104794 3:0.327253 4:-0.475401 5:0.105069 6:0.0941845 7:0.0128065 8:-0.162631 9:0.0662671 10:0.00547039 11:-0.0432685 12:-0.105245 13:0.0856883 14:0.114445 15:-0.132176 16:-0.0294866 17:0.024973 18:0.020531 19:0.0421412 20:-0.121931 21:0.520039 22:-0.310171 23:-0.00518928 24:0.111095 25:0.0640316 26:-0.684311 27:0.252184 28:0.314998 29:-0.416483 30:0.401146 31:-0.0630423 32:0.180169 33:-0.0611626 34:-0.132333 35:0.113061 36:-0.0419757 37:-0.107095 38:0.3529 39:-0.171854 40:-0.190604 41:0.462973 42:-0.377745 43:-0.110327 44:0.247934 45:-0.400375 46:0.609039 47:-0.73354 48:0.392469 49:-0.11035 50:0.0366566 51:-0.715316 52:0.0803082 53:0.439956 54:-0.436258 55:0.0101759 56:-0.112498 57:0.536692 58:-0.274329 59:0.184991 60:-0.30849 61:0.362357 62:-0.0431419 63:-0.294321 64:0.413864 65:-0.373017 66:0.240595 67:-0.302077 68:0.409147 69:-0.230004 70:0.279071 71:-0.414391 72:0.079765 73:0.0653838 74:0.0499702 75:-0.0743679 76:0.0857933 77:-0.72068 78:-0.768645 79:-0.809881 80:-0.0126108 
1.361422741629381 0 0 1:-0.59822 2:0.0577887 3:0.36374 4:-0.50564 5:0.195599 6:-0.0691981 7:0.152435 8:-0.225147 9:0.0963941 10:-0.0437779 11:-0.0207421 12:-0.0554409 13:0.0545597 14:0.0102597 15:0.0139345 16:-0.115631 17:-0.00181923 18:0.0787513 19:0.00575905 20:-0.0682019 21:0.413828 22:-0.228326 23:0.036793 24:-0.0171526 25:0.1572 26:-0.678715 27:0.230309 28:0.364165 29:-0.451505 30:0.378092 31:0.0117767 32:0.0851532 33:0.0246024 34:-0.209215 35:0.157478 36:-0.0588275 37:-0.0690572 38:0.267189 39:-0.13799 40:-0.0652567 41:0.267442 42:-0.182947 43:-0.236031 44:0.31426 45:-0.450049 46:0.614536 47:-0.635764 48:0.259212 49:-0.00656526 50:-0.017299 51:-0.703992 52:0.0503855 53:0.482615 54:-0.468822 55:0.0117527 56:-0.119809 57:0.567044 58:-0.280045 59:0.173717 60:-0.337951 61:0.418211 62:-0.00317287 63:-0.454072 64:0.543077 65:-0.381449 66:0.211245 67:-0.290069 68:0.35792 69:-0.0929726 70:0.134036 71:-0.293897 72:-0.0796392 73:0.252089 74:-0.0832206 75:-0.0253336 76:-0.0942213 77:-0.766255 78:-0.856148 79:-0.756904 80:0.242938 
2.819089044885507 0.6878160814286917 0.7948673546598244 1:-0.678606 2:0.583848 3:-0.653132 4:0.160426 5:0.0917928 6:-0.283545 7:0.342858 8:-0.274952 9:0.171745 10:-0.106422 11:0.135324 12:-0.27214 13:0.23617 14:-0.315678 15:0.178669 16:-0.0311509 17:0.0146927 18:-0.133125 19:0.208734 20:0.0959355 21:0.0163628 22:0.0519954 23:-0.140555 24:0.164554 25:-0.0268647 26:-0.684067 27:0.336601 28:0.110642 29:-0.326693 30:0.511419 31:-0.129317 32:-0.0738057 33:0.349503 34:-0.407207 35:0.221634 36:-0.0999628 37:-0.0915662 38:0.283627 39:-0.0943502 40:-0.00519761 41:0.0547103 42:0.0535933 43:-0.349531 44:0.472416 45:-0.735924 46:0.872594 47:-0.737858 48:0.307634 49:-0.123939 50:0.102356 51:-0.653565 52:0.127732 53:0.227532 54:-0.297923 55:0.130504 56:-0.0484371 57:0.223072 58:-0.140358 59:0.0199241 60:0.0477878 61:0.19803 62:-0.204932 63:-0.0403812 64:0.142566 65:-0.120003 66:0.00735679 67:0.0158385 68:0.205536 69:-0.402583 70:0.295357 71:-0.117961 72:-0.0192849 73:-0.250422 74:0.370973 75:-0.156676 76:-0.598928 77:-0.820187 78:-0.906089 79:-0.741837 80:0.450836 
0 0 0.5499525751503134 1:-0.490713 2:0.376192 3:-0.484129 4:0.0610165 5:0.0812775 6:-0.239297 7:0.294147 8:-0.248201 9:0.229366 10:-0.225081 11:0.362191 12:-0.455767 13:0.295247 14:-0.307762 15:0.028462 16:0.136076 17:-0.121785 18:-0.0153453 19:0.185147 20:0.0966191 21:0.0543586 22:0.055695 23:-0.17549 24:0.205346 25:-0.146622 26:-0.409447 27:0.0456546 28:0.28312 29:-0.409518 30:0.499588 31:-0.133445 32:-0.0869171 33:0.347059 34:-0.351307 35:0.244181 36:-0.199936 37:0.0369975 38:0.0824308 39:0.0335529 40:-0.00908877 41:0.0486032 42:-0.111713 43:0.02929 44:-0.0324555 45:-0.253119 46:0.63835 47:-0.583596 48:0.256052 49:-0.129593 50:0.0377017 51:-0.483042 52:-0.032721 53:0.245545 54:-0.291208 55:0.215316 56:-0.0436629 57:0.157744 58:-0.147387 59:-0.00835846 60:0.120935 61:0.136243 62:-0.140573 63:-0.0824499 64:0.15175 65:-0.118242 66:-0.0764274 67:0.0943503 68:0.131832 69:-0.241242 70:0.119086 71:0.0325347 72:-0.130162 73:-0.060493 74:-0.00566018 75:0.134064 76:-0.853702 77:-0.89673 78:-0.939281 79:-0.727321 80:0.55008 
1.428070508209842 0 0.06768242117434851 1:-0.47026 2:0.329107 3:-0.419978 4:0.0346987 5:0.0495308 6:-0.146404 7:0.198906 8:-0.219404 9:0.26433 10:-0.290124 11:0.41202 12:-0.472717 13:0.271698 14:-0.295274 15:0.0435405 16:0.135581 17:-0.149185 18:0.0504614 19:0.11018 20:0.0704706 21:0.233833 22:-0.2746 23:0.232285 24:-0.171169 25:0.169925 26:-0.357694 27:-0.00627987 28:0.344817 29:-0.463284 30:0.552942 31:-0.18576 32:-0.0205997 33:0.219156 34:-0.291119 35:0.234317 36:-0.210828 37:0.0358526 38:0.231335 39:-0.2393 40:0.27691 41:-0.140317 42:-0.047058 43:-0.011497 44:-0.0690012 45:-0.285277 46:0.666349 47:-0.518249 48:0.307906 49:-0.105253 50:-0.015763 51:-0.482788 52:-0.0173927 53:0.220263 54:-0.277229 55:0.253069 56:-0.0660533 57:0.123538 58:-0.0796534 59:-0.0670123 60:0.108365 61:0.218219 62:-0.223484 63:-0.00497651 64:0.0816387 65:-0.0819132 66:-0.129367 67:0.148291 68:0.0438841 69:-0.0687731 70:-0.0609063 71:0.0976412 72:-0.121484 73:-0.0042153 74:-0.130893 75:0.212 76:-0.824138 77:-0.897559 78:-0.944063 79:-0.710174 80:0.619598 
0.4776653203471425 0 0 1:-0.280761 2:-0.038901 3:0.0751005 4:-0.382618 5:0.326902 6:-0.255345 7:0.125441 8:0.0355245 9:-0.102398 10:0.109105 11:0.00746008 12:-0.177055 13:-0.0166433 14:-0.0842876 15:-0.0733245 16:0.163929 17:-0.170725 18:0.113663 19:0.0318887 20:0.0923798 21:0.22242 22:-0.208251 23:0.101783 24:-0.0577402 25:0.111743 26:-0.28569 27:-0.0924187 28:0.362838 29:-0.353945 30:0.330525 31:-0.0152192 32:-0.0343064 33:0.0840332 34:-0.116042 35:0.0377777 36:-0.0500925 37:0.0730719 38:-0.068476 39:0.261593 40:-0.140515 41:-0.0140848 42:-0.0251576 43:-0.0911893 44:-0.00197311 45:-0.235265 46:0.40684 47:-0.123337 48:-0.0504412 49:0.191713 50:-0.184349 51:-0.462546 52:-0.0471908 53:0.270955 54:-0.327726 55:0.301744 56:-0.0854846 57:0.0498408 58:0.0365973 59:-0.146457 60:0.208947 61:0.0968061 62:-0.114366 63:-0.111431 64:0.0827532 65:-0.0752814 66:-0.0845582 67:0.147876 68:-0.0578 69:0.0669732 70:-0.153361 71:0.0658011 72:-0.119183 73:0.0938201 74:-0.23966 75:0.261748 76:-0.808668 77:-0.896132 78:-0.947051 79:-0.713825 80:0.654339 
0.4247352033137434 0 0 1:-0.24337 2:-0.231316 3:0.281686 4:-0.368618 5:0.276643 6:-0.29322 7:0.128105 8:0.173374 9:-0.0908106 10:-0.0763665 11:0.0193285 12:-0.107919 13:-0.0233633 14:-0.15421 15:0.135673 16:0.0114974 17:-0.119318 18:0.105324 19:0.0624783 20:0.0802646 21:0.0411098 22:0.00144997 23:-0.0199893 24:-0.180461 25:0.4395 26:-0.255856 27:-0.169551 28:0.486571 29:-0.457048 30:0.380835 31:-0.0626738 32:0.151499 33:-0.137819 34:0.122737 35:-0.143907 36:-0.0264784 37:0.155322 38:-0.168778 39:0.306434 40:-0.176743 41:0.0169511 42:-0.107089 43:0.060933 44:-0.162222 45:-0.0217463 46:0.306582 47:-0.18861 48:0.00797807 49:0.143122 50:-0.158291 51:-0.507399 52:0.0460738 53:0.227256 54:-0.384135 55:0.361435 56:-0.160868 57:0.112872 58:0.0702786 59:-0.0735619 60:0.110055 61:-0.05399 62:0.00969418 63:0.0404486 64:-0.0972465 65:-0.113131 66:0.226611 67:-0.291089 68:0.201156 69:0.208292 70:-0.324006 71:0.0718911 72:0.0835263 73:-0.362238 74:0.231848 75:0.0325535 76:-0.789301 77:-0.874622 78:-0.936227 79:-0.73665 80:0.665017 
3.727643783975434 0.1757448761587846 0 1:-0.303499 2:-0.106838 3:0.115231 4:-0.225388 5:0.195368 6:-0.310875 7:0.252741 8:0.0418287 9:-0.0493329 10:-0.122678 11:0.0141657 12:-0.0689052 13:0.0732029 14:-0.325686 15:0.251351 16:0.0839698 17:-0.17209 18:-0.100404 19:0.224292 20:0.178721 21:-0.196852 22:0.230436 23:-0.389172 24:0.372308 25:0.0344073 26:-0.249624 27:-0.135069 28:0.434493 29:-0.436225 30:0.39451 31:-0.172623 32:0.250399 33:-0.182985 34:0.162081 35:-0.118203 36:-0.0184291 37:0.0143008 38:0.0562786 39:0.00314999 40:-0.0190888 41:0.0830099 42:-0.12754 43:0.0513277 44:-0.283977 45:0.390991 46:-0.366205 47:0.22496 48:0.0653301 49:-0.1454 50:0.196395 51:-0.488024 52:0.0554741 53:0.203427 54:-0.309115 55:0.2021 56:-0.106247 57:0.245672 58:-0.0677516 59:-0.0407119 60:0.105919 61:-0.0183946 62:-0.0629941 63:0.167953 64:-0.221162 65:-0.102976 66:0.264399 67:-0.292274 68:0.310627 69:-0.226814 70:0.238605 71:-0.351147 72:0.26343 73:-0.274186 74:0.0336545 75:0.133222 76:-0.784985 77:-0.846967 78:-0.936598 79:-0.737895 80:0.631116 
0.05524409290341723 0.4978848053434855 0.8560302448470234 1:-0.27091 2:-0.244333 3:0.260867 4:-0.225095 5:0.165801 6:-0.23517 7:0.138773 8:-0.0134834 9:-0.0137691 10:0.00921126 11:-0.0457547 12:-0.254842 13:0.269817 14:-0.209397 15:0.0694272 16:0.281759 17:-0.343618 18:-0.0988007 19:0.278131 20:0.273757 21:-0.181419 22:-0.125597 23:-0.015871 24:0.358837 25:-0.122068 26:-0.256561 27:-0.177528 28:0.491869 29:-0.427277 30:0.37465 31:-0.215821 32:0.324629 33:-0.189528 34:0.0516659 35:-0.0126884 36:-0.00794665 37:-0.0756508 38:0.0964918 39:0.138929 40:-0.0643405 41:0.0606721 42:-0.156213 43:0.0439141 44:-0.187635 45:0.296747 46:-0.539883 47:0.585836 48:-0.0769339 49:-0.134584 50:0.268227 51:-0.489675 52:0.0184915 53:0.246814 54:-0.277464 55:0.0469639 56:-0.0124985 57:0.363523 58:-0.215671 59:-0.0457292 60:0.201397 61:-0.0403455 62:-0.124607 63:0.189758 64:-0.130112 65:-0.271601 66:0.374836 67:-0.281224 68:0.280166 69:-0.332407 70:0.337717 71:-0.279397 72:0.0749937 73:-0.0591403 74:-0.147289 75:0.228285 76:-0.782525 77:-0.830668 78:-0.93561 79:-0.725969 80:0.637802 
0 0 0.106414301764508 1:-0.238763 2:-0.337772 3:0.437524 4:-0.276962 5:0.018094 6:-0.0973079 7:0.224801 8:-0.212128 9:-0.0746104 10:0.165906 11:-0.030365 12:-0.28473 13:0.124504 14:0.103203 15:-0.125846 16:0.150054 17:-0.259478 18:0.123916 19:0.179706 20:0.0649615 21:-0.0445673 22:-0.101442 23:-0.109985 24:0.601142 25:-0.401201 26:-0.262158 27:-0.165966 28:0.408369 29:-0.294757 30:0.21647 31:-0.0916061 32:0.118198 33:0.0323961 34:-0.114259 35:0.204642 36:-0.106477 37:-0.0452113 38:0.148487 39:-0.103759 40:0.135815 41:-0.129904 42:0.115219 43:-0.336396 44:0.0917038 45:0.024647 46:-0.0814321 47:0.109248 48:0.242708 49:-0.327007 50:0.311128 51:-0.487248 52:-0.046644 53:0.372899 54:-0.37785 55:-0.0117275 56:0.0868096 57:0.347367 58:-0.193048 59:-0.085479 60:0.0818163 61:0.22964 62:-0.208516 63:0.0409959 64:-0.0440277 65:-0.0989878 66:0.187318 67:-0.263857 68:0.335095 69:-0.290615 70:0.350686 71:-0.334471 72:-0.0547688 73:0.191256 74:-0.222834 75:0.16495 76:-0.868119 77:-0.897688 78:-0.955241 79:-0.707292 80:0.67174 
0 0 0.04154452974595556 1:-0.348151 2:-0.230323 3:0.454276 4:-0.42038 5:0.104352 6:0.00774553 7:0.0734925 8:-0.185723 9:-0.00957415 10:0.0853656 11:-0.0830142 12:-0.112336 13:0.051935 14:0.0304916 15:0.0135558 16:0.0534886 17:-0.23607 18:0.368954 19:-0.311934 20:0.257609 21:0.124909 22:-0.148895 23:-0.178584 24:0.53004 25:-0.259222 26:-0.30114 27:-0.17525 28:0.533242 29:-0.517872 30:0.625989 31:-0.198638 32:0.116567 33:0.0557949 34:-0.331884 35:0.127033 36:0.0117249 37:-0.149366 38:0.238166 39:-0.0195928 40:0.186683 41:-0.0325026 42:-0.219887 43:0.251479 44:-0.240542 45:-0.0115606 46:0.127771 47:0.110631 48:-0.0838968 49:-0.192535 50:0.345341 51:-0.424353 52:-0.122518 53:0.451169 54:-0.5527 55:0.24431 56:0.0222929 57:0.166973 58:-0.0925354 59:-0.0636053 60:0.0476943 61:0.317657 62:-0.413576 63:0.189925 64:0.0132747 65:-0.0869598 66:-0.13513 67:0.152184 68:0.202133 69:-0.365757 70:0.0865204 71:0.104012 72:-0.382495 73:0.371062 74:-0.477401 75:0.533324 76:-0.815871 77:-0.742427 78:-0.817449 79:-0.608306 80:0.144205 
17.06796982695497 0 0 1:-0.335581 2:-0.153832 3:0.333839 4:-0.444067 5:0.0842921 6:0.223449 7:-0.169039 8:-0.0413102 9:0.0773035 10:-0.131162 11:0.024694 12:-0.0159247 13:-0.0324749 14:0.100035 15:-0.119357 16:0.145527 17:-0.188112 18:0.266704 19:-0.156998 20:0.153041 21:0.0927889 22:-0.0942313 23:-0.115684 24:0.29156 25:-0.0367219 26:-0.250232 27:-0.274761 28:0.596442 29:-0.417401 30:0.462589 31:-0.147988 32:0.172417 33:-0.0859299 34:-0.186951 35:0.0621821 36:0.0505497 37:-0.0689548 38:-0.0379664 39:0.204546 40:-0.08028 41:0.0794233 42:-0.0113402 43:-0.0271123 44:-0.129047 45:0.0869084 46:-0.0731059 47:0.359519 48:-0.329346 49:0.162694 50:-0.0548938 51:-0.391805 52:-0.144187 53:0.417047 54:-0.514538 55:0.304882 56:-0.0560538 57:0.122029 58:0.00824074 59:-0.0797481 60:0.020441 61:0.244872 62:-0.291657 63:0.14003 64:0.00125827 65:-0.0913864 66:-0.104947 67:0.138819 68:0.141487 69:-0.225171 70:0.0187536 71:0.0195146 72:-0.196565 73:0.147107 74:-0.260237 75:0.420787 76:-0.734 77:-0.745508 78:-0.774427 79:-0.683904 80:0.101156 
4.548369106730151 0.1094437198389471 0 1:0.274783 2:-0.652664 3:0.282611 4:-0.243294 5:0.170371 6:-0.117085 7:0.166528 8:-0.0861061 9:-0.0331693 10:-0.120026 11:0.0995977 12:-0.0757287 13:-0.0229404 14:-0.0246545 15:-0.0822099 16:0.0446729 17:-0.271824 18:0.13149 19:0.0445314 20:0.0814803 21:0.151506 22:-0.127879 23:-0.012181 24:0.0876803 25:0.0567412 26:-0.369293 27:-0.0282612 28:0.305305 29:-0.204052 30:0.331412 31:-0.119763 32:0.12066 33:-0.0685052 34:-0.0977599 35:0.000954025 36:0.0532022 37:0.0686048 38:-0.141252 39:0.103245 40:-0.167629 41:0.104565 42:0.0174475 43:-0.0777428 44:-0.110985 45:-0.0509145 46:0.330591 47:-0.255658 48:0.172186 49:-0.0739267 50:-0.0473863 51:0.108917 52:-0.434713 53:0.284073 54:-0.213518 55:0.0717278 56:0.0334824 57:0.0716561 58:0.0481486 59:-0.137407 60:0.104742 61:0.0104331 62:-0.0650003 63:-0.0291086 64:-0.00594924 65:-0.160606 66:-0.00553967 67:0.00414407 68:0.0614665 69:-0.0233986 70:-0.097726 71:0.10102 72:-0.18195 73:0.121432 74:-0.0401851 75:0.194955 76:-0.384525 77:-0.653074 78:-0.616334 79:-0.929723 80:-0.186263 
5.180653160191095 2.584107294564084 3.181232915337588 1:0.266745 2:-0.641376 3:0.289102 4:-0.242792 5:0.162131 6:-0.126092 7:0.163349 8:-0.0784156 9:-0.0208228 10:-0.112776 11:0.0941414 12:-0.0886744 13:-0.0350864 14:-0.0236888 15:-0.0754462 16:0.0538461 17:-0.26891 18:0.128334 19:0.0369745 20:0.0750575 21:0.148375 22:-0.128591 23:-0.00998232 24:0.0896757 25:0.0493781 26:-0.381638 27:-0.00548719 28:0.298194 29:-0.206284 30:0.320464 31:-0.120873 32:0.122877 33:-0.0678154 34:-0.0793875 35:-0.0083203 36:0.0380549 37:0.056913 38:-0.139567 39:0.134889 40:-0.163712 41:0.102125 42:0.00495962 43:-0.084617 44:-0.114029 45:-0.044429 46:0.339789 47:-0.269909 48:0.18824 49:-0.103961 50:-0.00952797 51:0.108085 52:-0.430785 53:0.284415 54:-0.212145 55:0.0694863 56:0.0330274 57:0.0699532 58:0.0482248 59:-0.137866 60:0.104266 61:0.00788592 62:-0.0665914 63:-0.031156 64:-0.00349915 65:-0.16081 66:-0.00568409 67:0.00281716 68:0.0566062 69:-0.0211897 70:-0.100859 71:0.106477 72:-0.184118 73:0.127831 74:-0.0524521 75:0.212321 76:-0.397167 77:-0.467176 78:-0.635784 79:0.987107 80:-0.402364 
0.3006881077059625 0 0 1:-0.532652 2:0.312989 3:-0.497547 4:0.411928 5:-0.37267 6:0.087904 7:0.206274 8:-0.28747 9:0.34465 10:-0.492336 11:0.481461 12:-0.22404 13:-0.130477 14:0.252888 15:-0.221354 16:0.1574 17:-0.435852 18:0.806406 19:-0.554744 20:0.397465 21:-0.138196 22:0.0704499 23:-0.023377 24:-0.183515 25:0.43848 26:-0.474759 27:0.160183 28:-0.0309136 29:-0.0240881 30:0.292539 31:-0.128863 32:0.129692 33:0.0151266 34:-0.0479143 35:-0.274819 36:0.166812 37:0.162794 38:-0.245971 39:0.405598 40:-0.0104026 41:-0.472867 42:0.684263 43:-0.401652 44:-0.12228 45:0.180493 46:0.112412 47:-0.321716 48:0.284752 49:-0.270956 50:0.241473 51:-0.605784 52:0.103248 53:0.154148 54:-0.0924591 55:0.000746233 56:-0.207264 57:0.435964 58:-0.174456 59:-0.0077751 60:0.188882 61:-0.306535 62:0.415232 63:-0.297993 64:0.222773 65:-0.407385 66:0.0429537 67:0.216597 68:-0.00473907 69:-0.0178792 70:-0.270455 71:0.188856 72:-0.00111211 73:-0.18323 74:-0.0746859 75:0.252129 76:-0.690596 77:-0.652969 78:-0.793142 79:0.856657 80:-0.766773 
0.6559105920946284 0 0.5395784688073682 1:-0.531568 2:0.298361 3:-0.464325 4:0.387267 5:-0.362103 6:0.101542 7:0.15009 8:-0.185472 9:0.201467 10:-0.331755 11:0.279962 12:-0.0453396 13:-0.270646 14:0.327898 15:-0.214829 16:0.0799154 17:-0.324877 18:0.666213 19:-0.418 20:0.284049 21:-0.0683827 22:0.0433311 23:-0.0307932 24:-0.13677 25:0.393359 26:-0.4864 27:0.186498 28:-0.0886943 29:0.0825303 30:0.118206 31:0.0110289 32:0.0420969 33:0.0224758 34:0.0115087 35:-0.412466 36:0.333435 37:0.0425581 38:-0.174002 39:0.494595 40:-0.250305 41:-0.176852 42:0.40987 43:-0.295981 44:-0.0647243 45:-0.0136079 46:0.332882 47:-0.458671 48:0.330858 49:-0.277465 50:0.231475 51:-0.634267 52:0.147597 53:0.115151 54:-0.0593931 55:-0.0308618 56:-0.184449 57:0.40798 58:-0.13644 59:-0.0611022 60:0.22405 61:-0.301262 62:0.420746 63:-0.301917 64:0.145768 65:-0.26921 66:-0.0469717 67:0.267907 68:-0.0280414 69:-0.0263541 70:-0.284135 71:0.206492 72:0.0158447 73:-0.22772 74:-0.0281104 75:0.23655 76:-0.633402 77:-0.558957 78:-0.80383 79:0.931154 80:-0.690044 
1.183547924494782 1.001068468733547 0.3253622792224311 1:-0.537903 2:0.285511 3:-0.417445 4:0.328437 5:-0.289539 6:0.0225903 7:0.223531 8:-0.257664 9:0.244246 10:-0.363373 11:0.31645 12:-0.0876981 13:-0.209265 14:0.252481 15:-0.127054 16:-0.0235059 17:-0.247416 18:0.63412 19:-0.434915 20:0.330424 21:-0.152656 22:0.138818 23:-0.142225 24:-0.0393077 25:0.361108 26:-0.536296 27:0.262202 28:-0.134921 29:0.0988571 30:0.0822499 31:0.0381865 32:0.0130106 33:0.0346433 34:0.0174419 35:-0.392375 36:0.335268 37:0.0273595 38:-0.247126 39:0.59663 40:-0.348323 41:-0.0284231 42:0.232766 43:-0.117518 44:-0.253797 45:0.204792 46:0.140658 47:-0.261203 48:0.179945 49:-0.143269 50:0.0855916 51:-0.659442 52:0.171726 53:0.115052 54:-0.0993718 55:0.0402072 56:-0.246595 57:0.483991 58:-0.22125 59:0.0028425 60:0.193324 61:-0.250012 62:0.350393 63:-0.261816 64:0.122905 65:-0.214859 66:-0.0906404 67:0.284633 68:-0.0423849 69:0.00783084 70:-0.305978 71:0.254583 72:-0.0838592 73:-0.118776 74:-0.0902761 75:0.266272 76:-0.622945 77:-0.581323 78:-0.825733 79:0.965428 80:-0.588673 
0.3872972674648715 0.169823091414247 0 1:-0.546068 2:0.290149 3:-0.412901 4:0.318034 5:-0.27218 6:0.0121079 7:0.235095 8:-0.272787 9:0.249782 10:-0.380255 11:0.351394 12:-0.135199 13:-0.140037 14:0.162718 15:-0.0387185 16:-0.11053 17:-0.191839 18:0.597889 19:-0.417202 20:0.333526 21:-0.167511 22:0.157928 23:-0.165011 24:-0.0312542 25:0.375047 26:-0.515403 27:0.310066 28:-0.29784 29:0.240022 30:-0.0218727 31:-0.0184543 32:0.238391 33:-0.158889 34:0.0874519 35:-0.351443 36:0.172725 37:0.249667 38:-0.490312 39:0.905105 40:-0.809588 41:0.40688 42:-0.0300358 43:-0.222292 44:0.127941 45:-0.253921 46:0.547779 47:-0.570382 48:0.305126 49:-0.170187 50:0.0720689 51:-0.611922 52:0.129382 53:0.108217 54:-0.101553 55:0.10918 56:-0.259924 57:0.487935 58:-0.276378 59:0.034216 60:0.0845098 61:-0.000919512 62:0.150292 63:-0.110164 64:0.0185735 65:-0.223203 66:0.00688583 67:0.183526 68:-0.0383516 69:0.0805148 70:-0.299925 71:0.321207 72:-0.326236 73:0.114682 74:-0.210288 75:0.321944 76:-0.664735 77:-0.706083 78:-0.855663 79:0.978885 80:-0.519351 
0.3608831577092142 0.07755519295889352 0 1:-0.536645 2:-0.105609 3:0.515986 4:-0.485012 5:0.234948 6:-0.157754 7:0.0811995 8:-0.0392126 9:-0.185571 10:0.0202228 11:0.226652 12:-0.0960521 13:-0.0459146 14:-0.155641 15:0.18321 16:-0.0648504 17:-0.247622 18:0.345665 19:-0.0953764 20:0.277813 21:-0.318018 22:0.207641 23:-0.241007 24:0.433579 25:-0.171041 26:-0.535975 27:0.344804 28:-0.260091 29:0.169284 30:0.0560146 31:-0.127921 32:0.320498 33:-0.134446 34:-0.0656834 35:-0.166192 36:0.0954099 37:0.163708 38:-0.362924 39:0.794746 40:-0.989245 41:0.923601 42:-0.543295 43:-0.0438032 44:0.293395 45:-0.507948 46:0.700473 47:-0.526603 48:0.12462 49:0.0897435 50:-0.259395 51:-0.631826 52:0.0900395 53:0.276158 54:-0.402822 55:0.396881 56:-0.306063 57:0.276083 58:0.0258662 59:-0.209021 60:0.10907 61:0.278976 62:-0.137356 63:-0.066148 64:0.0619367 65:-0.307468 66:0.200398 67:0.0715252 68:-0.0769877 69:0.0898905 70:-0.199319 71:0.278069 72:-0.475446 73:0.324244 74:-0.15161 75:0.10224 76:-0.772233 77:-0.845389 78:-0.858126 79:0.973279 80:-0.471488 
0.732394819428333 0 0 1:-0.365016 2:-0.206985 3:0.45618 4:-0.44336 5:0.17496 6:-0.13821 7:0.0660881 8:-0.0841459 9:0.134251 10:-0.151519 11:0.033026 12:0.00822609 13:0.045042 14:-0.140607 15:-0.0106301 16:0.183703 17:-0.280147 18:0.154256 19:0.184008 20:-0.202901 21:0.381585 22:-0.18483 23:-0.0384874 24:-0.0426337 25:0.349508 26:-0.32576 27:-0.176526 28:0.457952 29:-0.335739 30:0.547937 31:-0.31077 32:0.307003 33:-0.0924348 34:-0.13474 35:-0.0442336 36:0.168168 37:-0.191091 38:0.106935 39:0.104609 40:-0.26528 41:0.227604 42:-0.0383378 43:-0.125718 44:0.073665 45:-0.0791153 46:0.127375 47:-0.244848 48:0.217675 49:-0.0652562 50:0.0699241 51:-0.378738 52:-0.209706 53:0.473375 54:-0.438051 55:0.138429 56:0.0713632 57:0.108894 58:-0.130097 59:0.0510275 60:0.0635911 61:0.0657433 62:-0.252312 63:0.514768 64:-0.627236 65:0.279437 66:-0.0781886 67:0.0126982 68:0.15105 69:-0.172474 70:0.207749 71:-0.227475 72:-0.0609645 73:0.0131701 74:-0.00802261 75:0.0869974 76:-0.838217 77:-0.835423 78:-0.931374 79:0.381863 80:-0.0315237 
2.387153265305428 0 0 1:-0.0110198 2:-0.572492 3:0.511275 4:-0.426428 5:0.22555 6:-0.174116 7:0.101695 8:0.0257473 9:-0.143315 10:-0.0505556 11:0.234286 12:-0.188939 13:-0.206921 14:0.196799 15:-0.0982752 16:0.260429 17:-0.302026 18:0.0490568 19:0.169266 20:0.14762 21:-0.0848241 22:0.110211 23:-0.0905978 24:-0.00231542 25:0.312745 26:-0.00848068 27:-0.595326 28:0.630804 29:-0.321976 30:0.393184 31:-0.127094 32:0.199987 33:0.0586513 34:-0.123071 35:-0.120939 36:-0.0163076 37:-0.064031 38:0.191307 39:-0.132628 40:0.05624 41:0.0773678 42:0.0289684 43:-0.0996906 44:0.000783756 45:0.045065 46:0.0389623 47:-0.0495656 48:0.057522 49:-0.301731 50:0.433097 51:0.0490778 52:-0.703362 53:0.624139 54:-0.439833 55:0.282555 56:-0.0100422 57:0.0675365 58:-0.0295778 59:-0.0205361 60:-0.0244291 61:0.18045 62:-0.191935 63:0.224751 64:-0.277733 65:-0.0128777 66:0.0776637 67:0.0057697 68:0.0497354 69:0.108848 70:-0.165567 71:-0.131756 72:0.132061 73:-0.135822 74:-0.0691959 75:0.309029 76:-0.675876 77:-0.891054 78:-0.932764 79:0.39882 80:0.0815694 
0.9737052785233908 0 0 1:0.158453 2:-0.771508 3:0.435026 4:-0.152459 5:0.226781 6:-0.224439 7:0.0154801 8:-0.171394 9:0.0690239 10:-0.0256169 11:0.163069 12:0.0360357 13:-0.314671 14:0.0760091 15:-0.208837 16:0.536652 17:-0.30775 18:0.0115625 19:-0.0980739 20:-0.073539 21:0.242677 22:0.0528934 23:-0.156424 24:0.314019 25:0.00504672 26:0.118109 27:-0.798654 28:0.704066 29:-0.249544 30:0.457448 31:-0.157039 32:0.218137 33:0.0299339 34:-0.162261 35:-0.0988744 36:0.0350394 37:0.00108772 38:0.0946668 39:-0.0678086 40:0.023589 41:0.0576504 42:0.0655651 43:-0.270442 44:-0.325899 45:0.18474 46:0.143074 47:-0.0702777 48:0.229272 49:-0.148787 50:0.101838 51:0.268138 52:-0.811646 53:0.55497 54:-0.347805 55:0.364702 56:-0.16701 57:0.11405 58:0.0324165 59:-0.0568688 60:0.0301083 61:0.177608 62:-0.0620298 63:-0.0596831 64:-0.0393269 65:0.0181651 66:-0.0446327 67:0.012998 68:-0.0136868 69:-0.136781 70:-0.140426 71:-0.0450982 72:0.0339403 73:0.0122386 74:0.203367 75:-0.199787 76:-0.970547 77:-0.958323 78:-0.98474 79:0.338395 80:0.240115 
3.369110722320756 0.6536043838140964 0 1:-0.463071 2:0.0351695 3:0.165963 4:-0.318284 5:0.230499 6:-0.323888 7:0.289888 8:-0.25704 9:0.208019 10:-0.242278 11:0.145236 12:0.0609102 13:0.0433303 14:-0.443864 15:0.0686492 16:0.632937 17:-0.699471 18:0.215497 19:0.288081 20:-0.140812 21:0.168417 22:-0.142447 23:-0.110254 24:0.492166 25:-0.302503 26:-0.209937 27:-0.359251 28:0.642447 29:-0.378916 30:0.374179 31:-0.0553084 32:0.0959464 33:-0.0466411 34:-0.0890324 35:0.000462301 36:-0.029973 37:-0.0616954 38:0.163597 39:-0.133183 40:-0.0302615 41:0.296947 42:-0.282067 43:-0.0142085 44:-0.0467231 45:0.119138 46:-0.100784 47:0.0376705 48:-0.0520687 49:-0.0217952 50:0.235656 51:-0.347777 52:-0.262813 53:0.430412 54:-0.362612 55:0.214098 56:-0.144803 57:0.257194 58:-0.0941916 59:-0.0101694 60:0.054262 61:0.170079 62:-0.126336 63:0.0457629 64:-0.0300625 65:-0.0737605 66:-0.0298004 67:-0.00308754 68:0.213086 69:-0.000683283 70:-0.126004 71:-0.0391849 72:-0.127874 73:-0.00902515 74:0.195599 75:-0.147295 76:-0.684104 77:-0.901403 78:-0.918642 79:0.398978 80:0.00634159 
0 0 0.1363876854864214 1:-0.511274 2:0.0901149 3:0.147073 4:-0.322347 5:0.250287 6:-0.372832 7:0.327379 8:-0.247552 9:0.183519 10:-0.259699 11:0.250563 12:-0.0844636 13:0.191121 14:-0.531069 15:0.0517178 16:0.77816 17:-0.856068 18:0.33714 19:0.188448 20:-0.0274193 21:0.0951024 22:-0.144669 23:-0.11878 24:0.560598 25:-0.380449 26:-0.338315 27:-0.174802 28:0.507749 29:-0.337382 30:0.362166 31:-0.0567732 32:0.0892857 33:-0.017121 34:-0.11428 35:0.0273548 36:-0.030703 37:-0.137914 38:0.286728 39:-0.18251 40:-0.0243872 41:0.205119 42:-0.246012 43:0.0989848 44:-0.19778 45:0.217646 46:-0.0687357 47:-0.0194193 48:-0.0400511 49:0.0271581 50:0.151222 51:-0.406022 52:-0.201711 53:0.435012 54:-0.415249 55:0.237142 56:-0.147597 57:0.280253 58:-0.089744 59:-0.0151084 60:0.0095575 61:0.210671 62:-0.125321 63:0.00855543 64:0.0164016 65:-0.143535 66:0.0561255 67:-0.0467422 68:0.19338 69:0.0224011 70:-0.131022 71:0.00956376 72:-0.227681 73:0.199673 74:-0.116727 75:0.0621697 76:-0.778639 77:-0.885634 78:-0.918758 79:0.374901 80:0.0797812 
0 0.1488261865113552 0 1:-0.06733 2:-0.443783 3:0.433425 4:-0.545184 5:0.314468 6:-0.201572 7:0.186522 8:-0.210069 9:0.362884 10:-0.457985 11:0.29708 12:-0.093846 13:-0.219458 14:0.149129 15:0.104443 16:0.108305 17:-0.241681 18:0.401183 19:-0.374167 20:0.224275 21:-0.130885 22:0.0941979 23:-0.0259124 24:0.231806 25:-0.129889 26:-0.0371067 27:-0.431238 28:0.651726 29:-0.420279 30:0.12912 31:0.0744346 32:0.112309 33:-0.104737 34:-0.00803162 35:0.0959909 36:-0.219453 37:-0.0943025 38:0.390025 39:-0.368485 40:0.140303 41:0.246934 42:-0.195174 43:-0.110159 44:0.093561 45:0.0678257 46:-0.314519 47:0.222908 48:0.223856 49:-0.553144 50:0.65826 51:-0.0538085 52:-0.373733 53:0.387442 54:-0.367551 55:0.293495 56:-0.138991 57:0.169793 58:-0.101207 59:0.111008 60:-0.111974 61:-0.00982928 62:-0.0361269 63:0.183751 64:-0.0715113 65:-0.291786 66:0.178371 67:-0.000255962 68:0.144683 69:-0.221381 70:0.0968031 71:-0.292064 72:0.374836 73:-0.256534 74:-0.13805 75:0.196219 76:-0.685791 77:-0.857571 78:-0.968077 79:0.326702 80:0.159554 
8.254805913906795 0 0 1:0.12828 2:-0.766158 3:0.408595 4:-0.181941 5:0.171066 6:-0.0921638 7:0.146634 8:-0.22276 9:-0.0665035 10:-0.0196339 11:0.23971 12:-0.0296321 13:-0.0818534 14:-0.132097 15:-0.0465254 16:0.158111 17:-0.172379 18:0.329134 19:-0.223624 20:-0.0639148 21:0.217092 22:0.00936435 23:-0.25443 24:0.0971654 25:0.536802 26:0.155121 27:-0.822153 28:0.650984 29:-0.267937 30:0.434191 31:-0.0791103 32:0.200643 33:0.00827851 34:-0.128767 35:-0.0246594 36:-0.0445988 37:-0.113479 38:0.0860511 39:0.346428 40:0.0351296 41:-0.0962873 42:-0.0807622 43:-0.0244263 44:-0.120471 45:-0.290719 46:0.362463 47:0.0640021 48:-0.140298 49:-0.0153827 50:0.297804 51:0.376255 52:-0.908851 53:0.491299 54:-0.334277 55:0.317771 56:-0.109703 57:0.274671 58:-0.0719656 59:0.055324 60:0.0468857 61:0.076934 62:-0.136929 63:0.0358244 64:-0.0499851 65:-0.227332 66:0.0741274 67:0.0769947 68:0.0755612 69:-0.0273212 70:-0.112289 71:-0.0307124 72:-0.241858 73:0.00591123 74:0.111322 75:0.239995 76:-0.968875 77:-0.972068 78:-0.988707 79:0.285662 80:0.188514 
4.802546990230447 0 0 1:0.160008 2:-0.799791 3:0.425006 4:-0.208461 5:0.187374 6:-0.0908773 7:0.142585 8:-0.13711 9:-0.143564 10:-0.00618666 11:0.212433 12:-0.118723 13:-0.0190488 14:0.0743159 15:-0.221942 16:0.141411 17:0.0281583 18:0.161169 19:-0.301595 20:0.0296387 21:0.225438 22:-0.0333835 23:-0.198646 24:0.110444 25:0.497153 26:0.18976 27:-0.857328 28:0.631806 29:-0.247919 30:0.499545 31:-0.0881254 32:0.0901232 33:0.00434449 34:-0.0484865 35:-0.0481752 36:0.000442573 37:-0.121014 38:0.0119421 39:0.370964 40:0.178426 41:-0.0502393 42:-0.167159 43:-0.332699 44:0.0171171 45:-0.131121 46:0.296238 47:0.16167 48:-0.209914 49:-0.0924383 50:0.429215 51:0.329839 52:-0.863299 53:0.481022 54:-0.325088 55:0.278261 56:-0.0866573 57:0.277901 58:-0.11559 59:0.1081 60:0.0560371 61:0.0687563 62:-0.213086 63:0.087921 64:-0.0671628 65:-0.0605717 66:-0.0650423 67:0.0532833 68:0.115615 69:0.0473917 70:-0.190035 71:-0.0659317 72:-0.178208 73:0.0787535 74:0.0345713 75:0.216249 76:-0.967784 77:-0.973317 78:-0.989267 79:0.283264 80:0.185641 
1.301814273980206 0 0 1:0.261572 2:-0.839933 3:0.377998 4:-0.343141 5:0.271897 6:-0.0861413 7:0.166334 8:0.00985812 9:-0.108623 10:-0.125827 11:0.235804 12:-0.296629 13:0.0968478 14:0.198565 15:-0.230319 16:0.145792 17:-0.00640202 18:0.00702147 19:-0.0373283 20:-0.0192851 21:0.232825 22:0.0848201 23:-0.15748 24:-0.131699 25:0.377271 26:0.285594 27:-0.859369 28:0.579946 29:-0.301499 30:0.423631 31:-0.126658 32:0.0920119 33:0.0161513 34:-0.0262956 35:0.0158756 36:0.0778528 37:-0.117179 38:0.0647652 39:0.350814 40:0.25586 41:0.0109888 42:-0.0924585 43:-0.36149 44:-0.0449932 45:-0.198759 46:0.127863 47:0.0813113 48:-0.138259 49:-0.0863196 50:0.539085 51:0.417893 52:-0.913947 53:0.471342 54:-0.326206 55:0.271632 56:-0.10133 57:0.304777 58:-0.120312 59:0.0221582 60:0.116861 61:0.134345 62:-0.200752 63:0.0558769 64:-0.14418 65:-0.0216041 66:-0.0159238 67:0.0550366 68:0.191423 69:-0.0441259 70:-0.103478 71:-0.0995621 72:-0.114711 73:-0.0315183 74:-0.00690344 75:0.218156 76:-0.974165 77:-0.973809 78:-0.991895 79:0.285238 80:0.184427 
0.2989529221336681 0 0 1:-0.321558 2:-0.0919323 3:0.118182 4:-0.184569 5:0.25298 6:-0.30159 7:-0.0599378 8:0.106151 9:0.108856 10:-0.26448 11:0.403662 12:-0.37806 13:-0.018502 14:0.0635085 15:-0.0138619 16:0.26356 17:-0.405446 18:0.145313 19:-0.0971961 20:0.297274 21:-0.0429339 22:0.024204 23:-0.0631315 24:0.00583881 25:0.35092 26:-0.317051 27:-0.119717 28:0.317861 29:-0.217718 30:0.389223 31:-0.0516577 32:-0.125502 33:0.16826 34:-0.0976037 35:-0.110898 36:0.0377412 37:0.0122235 38:-0.155921 39:0.430341 40:-0.502017 41:0.438887 42:-0.283422 43:0.0638674 44:-0.121761 45:0.0436833 46:-0.0526691 47:0.270773 48:-0.0937004 49:-0.00853236 50:0.0475998 51:-0.386062 52:-0.132978 53:0.296447 54:-0.365506 55:0.450822 56:-0.387019 57:0.434077 58:-0.134034 59:-0.00413427 60:0.0368533 61:0.0834132 62:-0.154797 63:0.182121 64:-0.172611 65:-0.00935294 66:-0.115298 67:0.101023 68:0.0162346 69:0.14226 70:-0.0188708 71:-0.211547 72:0.169291 73:-0.281078 74:0.0733286 75:0.19678 76:-0.86848 77:-0.794893 78:-0.917954 79:0.364805 80:0.187506 
0.4190744522289135 0 0 1:-0.328421 2:-0.092425 3:0.133583 4:-0.205904 5:0.267682 6:-0.309931 7:-0.0702843 8:0.130835 9:0.101082 10:-0.283759 11:0.45355 12:-0.435248 13:0.0158982 14:0.0788327 15:-0.0569344 16:0.334058 17:-0.459679 18:0.1724 19:-0.101451 20:0.295056 21:-0.0335998 22:0.0170701 23:-0.0605518 24:-0.00379492 25:0.375682 26:-0.325795 27:-0.116053 28:0.321265 29:-0.217729 30:0.388543 31:-0.0595597 32:-0.113331 33:0.170737 34:-0.110154 35:-0.0932262 36:0.0200972 37:0.0270694 38:-0.179219 39:0.461448 40:-0.528932 41:0.457424 42:-0.303426 43:0.0943333 44:-0.14442 45:0.0516075 46:-0.0436306 47:0.259396 48:-0.091962 49:-0.00939151 50:0.0421975 51:-0.416493 52:-0.100504 53:0.278622 54:-0.354525 55:0.449144 56:-0.421011 57:0.509069 58:-0.204093 59:0.0534956 60:-0.0189726 61:0.148163 62:-0.195784 63:0.185773 64:-0.166106 65:-0.028039 66:-0.0577379 67:0.0192169 68:0.142932 69:0.000240332 70:0.0944234 71:-0.29345 72:0.209869 73:-0.292295 74:0.0891948 75:0.182246 76:-0.789344 77:-0.771847 78:-0.906763 79:0.391048 80:0.153426 
4.694244525419356 0.1363923691514049 0.1131667295500177 1:-0.441888 2:0.0547419 3:0.0270795 4:-0.156309 5:0.206053 6:-0.290787 7:-0.000771246 8:0.121214 9:0.108847 10:-0.388697 11:0.599846 12:-0.538677 13:0.203998 14:0.00884045 15:-0.126718 16:0.402795 17:-0.525895 18:0.283531 19:-0.0722114 20:0.233081 21:-0.0686635 22:0.0515473 23:-0.0817795 24:0.130396 25:0.0678903 26:-0.373857 27:-0.0827812 28:0.316783 29:-0.206527 30:0.38388 31:-0.0367703 32:-0.187887 33:0.247132 34:-0.149697 35:-0.0831054 36:-0.0059451 37:0.0743476 38:-0.258796 39:0.56419 40:-0.539068 41:0.474052 42:-0.308747 43:0.0768458 44:-0.152028 45:0.0611032 46:-0.0517915 47:0.277234 48:-0.079088 49:-0.025413 50:-0.00890655 51:-0.509276 52:0.025302 53:0.211856 54:-0.322902 55:0.393457 56:-0.365181 57:0.442805 58:-0.211863 59:0.124233 60:-0.108039 61:0.256723 62:-0.291772 63:0.257384 64:-0.160198 65:-0.106959 66:0.0908197 67:-0.157332 68:0.32588 69:-0.143669 70:0.0825226 71:-0.189239 72:0.144601 73:-0.236927 74:0.0877551 75:0.104643 76:-0.746203 77:-0.794761 78:-0.910484 79:0.411756 80:0.131273 
6.855699882637258 0 0 1:-0.491335 2:0.0138924 3:0.282218 4:-0.403391 5:0.170848 6:-0.0616096 7:-0.076493 8:0.00539761 9:0.197906 10:-0.314191 11:0.302989 12:-0.198571 13:0.0343812 14:0.0638907 15:-0.193962 16:0.375629 17:-0.444435 18:0.23967 19:-0.0093625 20:0.194911 21:-0.0290984 22:-0.017906 23:-0.0614239 24:0.190093 25:-0.0254694 26:-0.430243 27:-0.0663379 28:0.345217 29:-0.234358 30:0.470409 31:-0.158995 32:0.00747587 33:0.0648328 34:0.0400519 35:-0.260188 36:0.107556 37:-0.0533867 38:-0.11066 39:0.462019 40:-0.225695 41:0.0444663 42:0.17128 43:-0.323224 44:0.0815135 45:-0.126423 46:0.156564 47:0.0194263 48:0.147706 49:-0.168923 50:0.0498015 51:-0.520868 52:-0.0152729 53:0.326606 54:-0.389799 55:0.2177 56:-0.110836 57:0.278607 58:-0.105792 59:-0.103217 60:0.205567 61:0.0979946 62:-0.416584 63:0.428403 64:-0.151826 65:-0.129749 66:-0.0309412 67:0.0726555 68:0.128032 69:-0.0417367 70:-0.0841793 71:0.0284342 72:-0.00774863 73:-0.303663 74:0.317195 75:-0.0505905 76:-0.764375 77:-0.862892 78:-0.93036 79:0.443086 80:0.0873914 
1.507615022500826 0 0 1:-0.331509 2:-0.348741 3:0.676617 4:-0.534571 5:0.179411 6:-0.183954 7:0.20197 8:-0.218567 9:0.101206 10:0.0525847 11:-0.110933 12:0.0117834 13:-0.122694 14:-0.140228 15:0.26113 16:-0.214128 17:0.0590504 18:0.187792 19:-0.3323 20:0.300022 21:0.0537201 22:-0.0410452 23:-0.173753 24:0.3265 25:-0.0808638 26:-0.140012 27:-0.53357 28:0.64504 29:-0.24729 30:0.471268 31:-0.324881 32:0.301849 33:0.121105 34:-0.127331 35:-0.18179 36:-0.150262 37:0.105353 38:-0.0458581 39:0.161839 40:-0.0491908 41:0.0436219 42:0.0413716 43:-0.224111 44:0.228663 45:-0.267683 46:0.166058 47:-0.0269938 48:0.0917921 49:-0.0367743 50:-0.0281403 51:-0.280212 52:-0.409747 53:0.61549 54:-0.420776 55:0.179985 56:-0.195059 57:0.383442 58:-0.167595 59:-0.0598243 60:0.163095 61:0.0404735 62:-0.153019 63:0.284606 64:-0.372064 65:0.00601926 66:0.189128 67:-0.173197 68:0.149668 69:-0.00552283 70:0.0120473 71:0.0208987 72:-0.238812 73:0.0784617 74:-0.0343039 75:0.0757534 76:-0.925271 77:-0.91624 78:-0.965868 79:0.20137 80:0.43251 
4.073612640867681 0 0 1:0.0757237 2:-0.758367 3:0.495201 4:-0.230117 5:0.233834 6:-0.184324 7:0.128859 8:-0.303568 9:0.0832257 10:-0.0815728 11:0.357136 12:-0.0855736 13:-0.121698 14:-0.221854 15:0.09283 16:0.163695 17:-0.308143 18:0.321099 19:-0.156098 20:0.0981276 21:0.115896 22:-0.210845 23:0.112053 24:0.295621 25:-0.20654 26:0.106363 27:-0.804577 28:0.648785 29:-0.209496 30:0.443406 31:-0.114052 32:0.177191 33:-0.0479095 34:-0.110568 35:-0.0202202 36:0.0477702 37:0.00122717 38:-0.0353837 39:0.165972 40:0.0290063 41:0.137385 42:-0.298746 43:-0.0940507 44:-0.167412 45:0.0918802 46:0.340222 47:0.0548463 48:0.0101691 49:-0.144046 50:-0.0410362 51:0.120037 52:-0.773335 53:0.617438 54:-0.336338 55:0.303652 56:-0.197543 57:0.261881 58:-0.0536095 59:-0.106553 60:0.0878519 61:0.149825 62:-0.0642874 63:-0.0205861 64:-0.157222 65:-0.0322133 66:0.0499975 67:0.162084 68:-0.0130111 69:-0.181405 70:-0.173049 71:0.201614 72:-0.134783 73:-0.108389 74:0.00463043 75:0.0860306 76:-0.950971 77:-0.975616 78:-0.985974 79:0.212086 80:0.394247 
2.677587254311868 0 1.317997911547282 1:-0.176031 2:-0.556851 3:0.649918 4:-0.356671 5:0.188719 6:-0.268415 7:0.192543 8:-0.262133 9:0.192131 10:-0.121988 11:0.0955452 12:-0.0420715 13:-0.0893805 14:0.134156 15:-0.201445 16:0.111082 17:0.120208 18:-0.255179 19:0.101796 20:0.300481 21:-0.195555 22:0.106837 23:0.000596128 24:0.149788 25:-0.141142 26:-0.15145 27:-0.569987 28:0.7271 29:-0.236013 30:0.37305 31:-0.169165 32:0.192148 33:-0.192414 34:0.125557 35:-0.124968 36:-0.0153605 37:0.0160717 38:-0.0697539 39:0.206791 40:0.0233577 41:-0.0962075 42:0.00974923 43:0.0365355 44:-0.0911574 45:-0.074056 46:0.478528 47:-0.515214 48:0.178472 49:-0.0307172 50:-0.0011328 51:-0.118333 52:-0.513638 53:0.540787 54:-0.373711 55:0.265839 56:-0.159041 57:0.251045 58:-0.0587612 59:-0.121021 60:0.288622 61:-0.144789 62:-0.134325 63:0.227386 64:-0.103077 65:-0.00892511 66:0.00741682 67:-0.137963 68:0.386656 69:-0.432231 70:0.113843 71:0.147898 72:-0.212035 73:-0.0742279 74:-0.0138165 75:0.100597 76:-0.938285 77:-0.947273 78:-0.978606 79:0.209922 80:0.401106 
0.9249782985323493 0 0 1:-0.212937 2:-0.509892 3:0.629361 4:-0.333631 5:0.0840103 6:-0.108909 7:0.132597 8:-0.170199 9:0.0224606 10:-0.0297753 11:0.0625621 12:-0.0464416 13:0.0101869 14:0.00299058 15:-0.270845 16:0.405258 17:-0.361885 18:0.306491 19:-0.188009 20:0.290719 21:0.0470128 22:-0.191886 23:-0.0804452 24:0.412724 25:-0.150363 26:-0.133885 27:-0.566973 28:0.707852 29:-0.242717 30:0.368446 31:-0.156417 32:0.323599 33:-0.146109 34:-0.211688 35:0.0456965 36:0.127487 37:-0.126523 38:0.0546836 39:-0.124357 40:0.0923291 41:0.114213 42:-0.13996 43:0.204311 44:-0.298174 45:-0.0254324 46:0.274427 47:0.00993011 48:-0.11144 49:-0.0251931 50:0.13073 51:-0.299135 52:-0.304612 53:0.524449 54:-0.433828 55:0.146895 56:-0.033224 57:0.228053 58:-0.183054 59:0.193809 60:-0.0839104 61:0.247352 62:-0.485781 63:0.409317 64:-0.109169 65:-0.0720569 66:-0.173686 67:0.124788 68:0.242641 69:-0.149421 70:-0.173358 71:-0.00358645 72:0.279782 73:-0.583522 74:0.320964 75:-0.0340609 76:-0.916168 77:-0.936841 78:-0.974775 79:0.216273 80:0.413819 
